~o
<STREAMINFO> 1 448
<VECSIZE> 448<NULLD><MFCC><DIAGC>
~h "Adam"
<BEGINHMM>
<NUMSTATES> 10
<STATE> 2
<MEAN> 448
 1.563742e-01 -5.329365e-02 -3.562586e-02 1.294339e-01 2.749798e-01 6.566617e-02 -8.468675e-02 1.936213e-01 6.692678e-01 1.350347e-01 1.116391e-02 4.833003e-01 5.317489e-01 2.658496e-01 8.408418e-02 4.540327e-01 3.366016e-01 1.629483e-01 9.827428e-02 2.559969e-01 1.276987e-01 1.025651e-01 8.694739e-02 6.907101e-02 2.886929e-02 -5.763434e-04 2.231974e-03 3.510757e-02 4.950526e-02 -2.851700e-02 -1.111300e-02 6.565690e-02 1.494472e-02 4.031305e-02 1.597330e-02 -1.828592e-02 4.227852e-02 -3.850831e-03 -4.570119e-02 1.069058e-01 2.379243e-01 3.300165e-01 1.098823e-01 1.550043e-01 2.384311e-01 2.316822e-01 1.059592e-01 1.555882e-01 8.070153e-02 1.050790e-01 6.396965e-02 8.871730e-02 -1.767363e-02 9.128561e-03 -1.307584e-02 -1.105046e-02 1.283081e-02 -6.438894e-02 -1.533227e-01 6.820212e-02 -1.445853e-01 3.346220e-03 -1.006835e-02 -1.241922e-01 -1.067515e-01 -6.305394e-02 -2.297488e-01 -1.863003e-01 9.492547e-02 3.034147e-02 3.171687e-02 -7.769498e-02 9.851030e-03 -3.169812e-02 -1.169754e-01 1.093839e-01 -2.609846e-02 4.650120e-02 -2.419658e-02 4.386438e-02 -6.766254e-03 -2.025169e-02 1.480910e-02 -2.926138e-02 1.583933e-01 -4.936626e-02 -4.989092e-02 1.493056e-01 1.268917e-01 2.963082e-02 -1.716862e-02 -9.026250e-03 7.062411e-01 -7.272545e-02 -2.170689e-01 6.033835e-01 6.270265e-01 4.254729e-01 1.478377e-01 3.409244e-01 5.187677e-01 3.584162e-01 1.600592e-01 3.549723e-01 1.689032e-01 8.016861e-02 4.332917e-02 1.210083e-01 -2.350356e-02 1.439249e-02 1.969600e-02 -1.923806e-02 4.177779e-01 2.201901e-01 2.663274e-01 3.878097e-01 8.716172e-01 2.678547e-01 -1.888331e-01 6.120318e-01 8.133748e-01 5.839186e-01 -5.444850e-02 6.930285e-01 5.995241e-01 3.372172e-01 8.297130e-02 4.995238e-01 3.267958e-01 8.198739e-02 -1.732378e-02 2.421258e-01 4.966363e-01 8.714119e-02 -6.226521e-02 4.042943e-01 3.202112e-01 2.442956e-01 3.490015e-02 4.956549e-02 1.982238e-01 5.569651e-02 -4.889840e-04 1.407850e-01 1.863697e-01 1.201521e-01 2.814785e-02 2.165459e-01 3.576347e-01 -9.781823e-02 -4.593145e-02 1.421300e-01 1.870282e-01 1.721370e-01 -2.308504e-02 3.923479e-02 9.911096e-02 1.321816e-01 2.014566e-02 -7.111036e-02 2.642176e-01 -7.351111e-02 -1.612217e-01 1.819833e-01 1.498365e-02 5.488578e-02 6.194306e-02 5.295161e-03 -1.035985e-01 -2.085162e-01 -1.192076e-01 -9.079667e-02 -2.025077e-01 1.070666e-01 -7.426236e-02 -1.571276e-01 3.121636e-02 -5.533239e-02 -1.000492e-01 4.079233e-02 -2.103689e-01 9.630420e-03 5.919497e-03 -1.787368e-01 -1.325169e-01 -1.057996e-01 -8.357456e-02 -4.914387e-02 -1.312090e-01 -4.030579e-02 -2.863310e-02 -1.854136e-01 -2.202120e-01 -5.729933e-02 -3.073258e-02 -2.582378e-01 3.050027e-01 1.550444e-01 1.805619e-01 1.878893e-01 5.959124e-01 1.227804e-01 -2.087122e-01 3.475245e-01 8.751725e-01 3.831896e-01 7.519305e-02 5.825917e-01 6.744732e-01 3.995253e-01 8.094797e-02 5.036122e-01 3.800032e-01 2.214972e-01 1.175424e-01 1.954249e-01 5.628620e-01 5.670307e-02 -1.072477e-02 4.159846e-01 3.664875e-01 1.132283e-01 5.152212e-03 2.163183e-01 6.266235e-01 2.716374e-01 4.392306e-02 7.642286e-01 4.021693e-01 -4.467761e-02 -1.553266e-01 1.866976e-01 8.322758e-01 4.712158e-01 5.241826e-02 6.577960e-01 7.171009e-01 2.761754e-01 -1.535279e-02 7.387004e-01 4.731781e-01 2.259256e-01 1.295478e-01 5.422329e-01 3.868253e-01 3.933123e-01 -1.096988e-02 3.575287e-01 1.787207e-01 1.490137e-01 2.010528e-02 3.104876e-01 2.426648e-01 1.327392e-01 -2.403732e-02 3.624364e-01 3.316508e-01 -9.527321e-03 -1.511450e-01 1.613584e-01 3.123065e-01 2.511470e-01 -9.213732e-02 2.424298e-01 4.061274e-01 -6.035995e-03 -8.968029e-02 2.188497e-01 3.900988e-01 3.009931e-01 9.565472e-02 2.857781e-01 2.619482e-01 2.521717e-01 1.411785e-01 2.222106e-01 9.274766e-02 1.466041e-01 1.553263e-01 2.841613e-01 -5.756145e-02 6.055247e-02 -1.506063e-02 -2.528626e-03 2.499647e-02 1.166985e-01 -1.086467e-01 2.332347e-01 -5.571655e-02 5.501106e-02 6.597409e-02 -1.153571e-01 -5.506881e-02 9.350006e-02 1.091588e-01 -6.218082e-02 -1.499101e-03 8.210376e-02 4.421639e-02 8.076712e-02 -1.141412e-01 -7.087515e-02 2.960537e-02 8.718818e-02 8.984406e-02 1.079443e-01 1.602301e-02 1.999554e-01 4.838303e-01 1.789532e-01 3.590998e-02 5.061176e-01 3.484597e-01 2.009687e-02 -1.900899e-01 2.139082e-01 6.873084e-01 3.289579e-01 5.876109e-02 6.152737e-01 6.871030e-01 1.681315e-01 9.156186e-03 6.015585e-01 6.060060e-01 3.002245e-01 1.307047e-01 5.584835e-01 3.266623e-01 2.995594e-01 9.839398e-02 4.284092e-01 1.723049e-01 1.500547e-01 -5.939369e-05 1.787110e-01 2.553969e-01 4.463968e-02 2.115263e-01 3.965151e-01 5.964664e-02 5.040822e-02 -9.661158e-03 4.281029e-02 3.764236e-02 8.181100e-02 6.484420e-03 9.806782e-02 2.521914e-01 9.631915e-02 5.763078e-02 4.375556e-02 3.776853e-01 3.692301e-02 -2.605872e-02 1.677575e-01 6.620651e-02 1.703522e-02 6.995314e-02 4.049129e-02 5.012872e-02 3.458825e-02 -6.663080e-03 4.630540e-02 4.050944e-01 -5.283505e-02 1.128262e-01 3.277871e-01 5.719863e-02 4.471333e-02 1.589268e-03 3.636524e-02 3.882164e-01 5.566620e-02 -1.994988e-01 2.866140e-01 4.226779e-01 1.673443e-01 4.137490e-02 4.520696e-01 2.560561e-01 1.416357e-01 1.078453e-02 1.838985e-01 1.936152e-01 2.113958e-01 2.447846e-01 1.614684e-01 5.007491e-02 3.489293e-02 5.540021e-02 3.683068e-02 4.625456e-01 4.180549e-02 7.459800e-02 3.974943e-01 4.066523e-02 2.152165e-02 -2.050379e-02 2.419099e-02 2.630610e-01 -3.648855e-02 -6.049880e-02 1.871183e-01 4.149187e-01 -6.842110e-03 -2.602544e-02 2.921926e-01 2.130545e-01 5.424302e-02 2.134658e-03 5.220124e-02 1.249635e-01 7.348927e-02 1.529977e-02 7.169197e-02 4.328972e-02 6.895145e-02 -1.113071e-02 -1.990614e-02 -2.073380e-01 2.554109e-02 -2.993986e-03 -1.551229e-01 -2.219509e-02 -1.303300e-02 1.345801e-03 -2.154233e-02 -2.027154e-01 3.218794e-03 5.836927e-02 -1.392846e-01 -2.442687e-01 -6.812081e-02 -2.739594e-03 -3.138991e-01 -1.198357e-01 -1.178026e-01 1.353931e-02 -1.149880e-01 -1.294592e-01 -1.213148e-01 -8.837823e-02 -1.036640e-01 -2.832910e-02 -1.545390e-02 -2.635699e-02 -1.427050e-02
<VARIANCE> 448
 4.421085e-02 4.156220e-02 3.662219e-02 4.379290e-02 6.153065e-02 3.424657e-02 3.480491e-02 6.319378e-02 1.726005e-01 8.480727e-02 1.410676e-01 9.475411e-02 8.775499e-02 9.478641e-02 1.602648e-01 9.901056e-02 9.278370e-02 3.964585e-02 8.479945e-02 7.966021e-02 5.585458e-02 2.599414e-02 2.337122e-02 2.604635e-02 1.000000e-02 1.000000e-02 1.000000e-02 1.336518e-02 4.088273e-02 4.159750e-02 2.317541e-02 3.551330e-02 2.156935e-02 3.007804e-02 5.664810e-02 2.754206e-02 1.493312e-01 9.367381e-02 2.104240e-01 1.248794e-01 8.653732e-02 1.117606e-01 4.993075e-02 8.699221e-02 7.107251e-02 9.202591e-02 1.071276e-01 6.703693e-02 2.141591e-02 2.330044e-02 2.255668e-02 1.911956e-02 1.000000e-02 1.000000e-02 1.000000e-02 1.000000e-02 3.758858e-02 2.701826e-02 5.844375e-02 1.013718e-01 3.773150e-02 5.359268e-02 1.083205e-01 7.516734e-02 1.929199e-01 1.352489e-01 1.824027e-01 3.266656e-01 1.785287e-01 1.805984e-01 1.417689e-01 2.063565e-01 3.349843e-01 2.016771e-01 1.554310e-01 1.451263e-01 4.328200e-02 3.101750e-02 3.860836e-02 2.390669e-02 1.000000e-02 1.000000e-02 1.000000e-02 1.000000e-02 5.478286e-02 5.324298e-02 6.034675e-02 7.225541e-02 8.858118e-02 7.392294e-02 8.329846e-02 8.922575e-02 1.873638e-01 2.564304e-01 2.411271e-01 2.385150e-01 1.659334e-01 2.080147e-01 2.964842e-01 2.186193e-01 8.343369e-02 1.179425e-01 1.501468e-01 7.773668e-02 6.271257e-02 3.082499e-02 3.821012e-02 4.249458e-02 1.000000e-02 1.000000e-02 1.000000e-02 1.000000e-02 1.349941e-01 2.510112e-01 3.468406e-01 2.190125e-01 3.825592e-01 2.041665e-01 1.906604e-01 1.798469e-01 1.134367e-01 2.397529e-01 2.037778e-01 1.309924e-01 1.656720e-01 1.146316e-01 2.363661e-01 1.224173e-01 5.622045e-02 1.086029e-01 8.613684e-02 1.028459e-01 1.198262e-01 1.026408e-01 1.027066e-01 1.535165e-01 2.961011e-01 2.170101e-01 2.307351e-02 5.600898e-02 7.817724e-02 6.087780e-02 9.788897e-02 6.175289e-02 9.625141e-02 2.069625e-01 1.876254e-01 3.059969e-01 2.222778e-01 3.916264e-01 2.871148e-01 1.958210e-01 2.145815e-01 1.467180e-01 2.059393e-01 1.696029e-01 6.319535e-02 8.210324e-02 1.383283e-01 8.123709e-02 8.993727e-02 8.097760e-02 1.701011e-01 8.922825e-02 2.180546e-02 6.016019e-02 3.924736e-02 6.136558e-02 1.047949e-01 1.107974e-01 1.089114e-01 1.191273e-01 1.074778e-01 1.245026e-01 2.362958e-01 1.191695e-01 3.062685e-01 1.796298e-01 3.120861e-01 2.048313e-01 1.992199e-01 1.395178e-01 2.248098e-01 1.658008e-01 1.086599e-01 1.079976e-01 1.055986e-01 8.302051e-02 1.187046e-01 8.751917e-02 1.241428e-01 2.571765e-01 8.915573e-02 2.345445e-02 3.456340e-02 1.516319e-01 1.026209e-01 1.406989e-01 1.653246e-01 9.523942e-02 1.848320e-01 1.843658e-01 1.574265e-01 1.954800e-01 1.722024e-01 8.340462e-02 2.221746e-01 2.464695e-01 1.620290e-01 1.168051e-01 2.551623e-01 1.741723e-01 1.042246e-01 6.265719e-02 1.113632e-01 1.152975e-01 2.426457e-01 2.858744e-01 1.774042e-01 2.984783e-01 4.630357e-01 2.182014e-01 2.734562e-02 1.718649e-01 2.323294e-01 1.863295e-01 2.703509e-01 2.262174e-01 1.263465e-01 7.090098e-02 1.120700e-01 8.192746e-02 1.164503e-01 1.714226e-01 1.913989e-01 2.371457e-01 1.511308e-01 1.474941e-01 1.070194e-01 1.705021e-01 7.897127e-02 9.507757e-02 1.300700e-01 1.372513e-01 5.947884e-02 6.921500e-02 6.538218e-02 8.185068e-02 9.273715e-02 7.797066e-02 1.638672e-01 1.662647e-01 9.630352e-02 1.222396e-01 2.630810e-01 1.380959e-01 7.045803e-02 8.418033e-02 8.798227e-02 6.922770e-02 1.483291e-01 1.729192e-01 1.605128e-01 1.831269e-01 1.428773e-01 9.273590e-02 1.601745e-01 2.820892e-01 1.263154e-01 1.033761e-01 1.725879e-01 1.091739e-01 1.176978e-01 6.881826e-02 1.084470e-01 1.254595e-01 7.175165e-02 7.877008e-02 1.167244e-01 1.405640e-01 9.725771e-02 1.572166e-01 1.558735e-01 1.793134e-01 7.949301e-02 5.661782e-02 1.387325e-01 1.179644e-01 2.080999e-01 3.038131e-01 1.574081e-01 2.881249e-01 2.595465e-01 1.311622e-01 2.316854e-01 2.951601e-01 3.732471e-01 1.947364e-01 1.564564e-01 1.351900e-01 7.199566e-02 1.777185e-01 3.300942e-01 2.715988e-01 1.310919e-01 8.566222e-02 1.253797e-01 1.247158e-01 2.018605e-01 1.201030e-01 2.214624e-01 1.875417e-01 8.175766e-02 7.997271e-02 1.045373e-01 7.200024e-02 1.134095e-01 6.693935e-02 2.325208e-01 2.082050e-01 1.833569e-01 2.304558e-01 1.862055e-01 2.694368e-01 1.437816e-01 1.431007e-01 1.247081e-01 3.910808e-01 1.489671e-01 9.970262e-02 1.052608e-01 1.726364e-01 1.123956e-01 7.943618e-02 8.150138e-02 7.518941e-02 6.937589e-02 1.207447e-01 1.619969e-01 8.570296e-02 2.325535e-02 2.604233e-02 2.082841e-02 3.228574e-02 5.377186e-02 3.434640e-02 3.924379e-02 1.072165e-01 1.160028e-01 8.731580e-02 6.700249e-02 5.994600e-02 2.811299e-01 6.067197e-02 6.587926e-02 1.383757e-01 1.626296e-02 2.087766e-02 4.834501e-02 2.273611e-02 3.035308e-02 1.518588e-02 3.553671e-02 3.837646e-02 1.078898e-01 7.958914e-02 7.587810e-02 1.006918e-01 2.187764e-02 2.758751e-02 3.125025e-02 2.881537e-02 1.338167e-01 1.628193e-01 1.219231e-01 1.040109e-01 2.301932e-01 2.052450e-01 1.632811e-01 1.433210e-01 1.269633e-01 5.760782e-02 1.076280e-01 1.034347e-01 5.336300e-02 8.408072e-02 1.197349e-01 6.321948e-02 2.432915e-02 2.362918e-02 6.856395e-02 2.608325e-02 1.612025e-01 2.333982e-01 1.534387e-01 1.939778e-01 2.798232e-02 2.225659e-02 1.704768e-02 4.399938e-02 8.531713e-02 1.240354e-01 8.605320e-02 1.079337e-01 3.778475e-01 1.006955e-01 1.230112e-01 1.813725e-01 1.789079e-01 6.138432e-02 1.481725e-01 1.474055e-01 9.316161e-02 4.750597e-02 5.053563e-02 1.063324e-01 3.914558e-02 5.498959e-02 1.409277e-02 1.738727e-02 3.276972e-02 2.489943e-02 3.176573e-02 6.440245e-02 1.000000e-02 1.000000e-02 1.000000e-02 1.000000e-02 4.281792e-02 6.127315e-02 3.699448e-02 2.617941e-02 9.273758e-02 4.190533e-02 7.488128e-02 7.744506e-02 4.354020e-02 3.346433e-02 5.084794e-02 3.045055e-02 3.791258e-02 3.286817e-02 2.781083e-02 3.851947e-02 1.276596e-02 1.000000e-02 1.670797e-02 1.000000e-02
<GCONST> -2.755525e+02
<STATE> 3
<MEAN> 448
 7.059456e-02 6.547605e-03 -1.157853e-01 9.422778e-02 7.581348e-01 2.008803e-01 -1.857847e-01 5.198687e-01 6.070864e-01 2.607496e-01 9.367886e-02 4.635974e-01 4.727907e-01 1.771828e-01 -3.049943e-02 2.857490e-01 2.283729e-01 1.424089e-01 1.147836e-01 1.204749e-01 1.133027e-02 6.064628e-03 6.689313e-03 8.665685e-03 3.028775e-04 4.003419e-04 -1.444669e-04 1.282388e-03 1.454423e-02 3.456911e-02 -4.691007e-02 4.169216e-02 -1.347141e-01 -1.555636e-02 -9.488855e-02 -9.312489e-02 2.741076e-01 1.840773e-01 3.996775e-02 2.943909e-01 7.092403e-02 5.982167e-02 1.092677e-01 -1.507848e-02 5.492881e-02 6.043304e-02 -1.363570e-02 4.684100e-02 5.843416e-03 1.008315e-02 4.786951e-03 9.009512e-03 6.108013e-04 2.564932e-04 -8.594494e-04 1.718808e-04 -8.403670e-02 2.029997e-02 -4.727146e-02 1.228946e-02 -3.492999e-01 -1.259237e-01 -8.115608e-02 -2.627142e-01 -2.892921e-03 2.961830e-02 6.245560e-03 6.864586e-02 -5.891071e-02 1.785240e-01 8.183140e-02 -8.650441e-02 -6.172824e-02 5.994891e-02 4.697949e-02 4.460984e-02 -9.956820e-03 -1.237470e-02 -1.930383e-02 3.435936e-03 -1.714838e-03 -1.241324e-03 1.604049e-03 -1.678040e-03 2.586832e-02 5.083537e-02 -1.259952e-02 3.699316e-02 5.429875e-01 1.065920e-01 -2.575783e-01 3.296224e-01 7.156321e-01 4.084531e-01 1.670900e-01 6.037723e-01 5.505523e-01 1.256442e-01 4.034540e-02 2.629494e-01 1.749014e-01 2.282655e-02 5.395938e-02 6.071441e-02 9.124289e-03 5.636720e-03 -5.837092e-04 1.400821e-02 4.332494e-05 3.855946e-04 4.495939e-04 -1.106078e-03 6.687263e-01 9.766226e-04 -3.335198e-01 5.935072e-01 7.702337e-01 3.931508e-01 2.596832e-02 6.136072e-01 6.768375e-01 1.926599e-01 -1.692032e-01 5.354208e-01 4.678641e-01 1.458676e-01 -2.472928e-03 3.070352e-01 5.687104e-01 1.686895e-01 -4.345183e-02 3.282866e-01 3.853061e-01 3.392831e-01 2.052622e-01 3.316809e-01 1.578932e-02 1.051724e-02 3.977424e-03 2.983313e-03 2.750753e-01 8.118011e-02 -6.977559e-02 1.842438e-01 3.772187e-01 1.587499e-01 8.932587e-03 2.452940e-01 1.708487e-01 9.705087e-02 1.356364e-01 1.312459e-01 1.093612e-01 -1.065204e-01 -1.089451e-01 4.751417e-02 2.593513e-01 2.487110e-01 1.271496e-01 2.039477e-01 1.622522e-02 4.638933e-02 2.469446e-02 -2.780431e-02 2.394790e-03 8.777461e-03 8.999374e-04 -4.451724e-03 -2.767125e-02 7.226687e-03 -3.181752e-02 -4.120871e-02 6.988367e-02 1.821131e-01 9.142489e-02 1.478217e-01 -1.267812e-01 -1.832629e-01 -1.383498e-01 -1.539157e-02 -1.025933e-01 -4.921290e-02 -1.211498e-01 -6.784938e-02 2.048685e-01 1.432191e-01 1.013768e-01 4.218866e-02 -1.055985e-01 -7.879843e-02 -5.355299e-02 -2.049463e-01 -3.702227e-03 -1.913673e-03 2.181848e-03 -1.051430e-02 5.561929e-01 1.887527e-02 -2.886255e-01 5.151750e-01 5.538387e-01 1.240773e-01 -9.778794e-02 3.406630e-01 5.202888e-01 1.583029e-01 -2.582701e-02 4.692335e-01 1.950815e-01 7.723090e-02 1.117859e-01 8.874693e-02 5.314900e-01 2.981052e-01 5.816611e-02 3.856455e-01 3.257566e-01 2.828333e-01 1.897526e-01 3.011551e-01 1.454569e-02 6.391203e-03 -7.509067e-04 1.038893e-02 3.951510e-01 7.596447e-02 -1.622995e-01 3.737794e-01 7.670249e-01 2.612928e-01 2.676113e-02 4.529616e-01 6.692716e-01 3.030077e-01 4.925003e-02 4.513431e-01 5.760934e-01 2.048482e-01 -7.374007e-02 4.257744e-01 7.201929e-01 3.056703e-01 -5.206592e-02 5.430953e-01 4.473664e-01 4.767072e-01 1.902054e-01 2.666709e-01 1.463997e-01 1.227469e-01 -7.923080e-02 2.000299e-01 4.268464e-01 7.320580e-02 -2.460988e-01 5.168477e-01 3.202068e-01 2.949306e-01 1.943537e-01 2.477115e-01 1.378840e-01 1.143348e-01 2.494953e-02 1.884154e-01 1.982732e-01 1.109772e-02 5.963960e-02 8.011051e-02 2.521868e-01 2.020247e-02 -1.941696e-01 3.150076e-01 4.000046e-01 3.900880e-01 2.523559e-01 3.117844e-01 8.190552e-03 -7.739245e-03 6.427251e-02 1.671580e-02 2.555255e-01 7.406064e-03 -1.462645e-01 3.676579e-01 -1.414303e-01 1.221799e-01 2.095737e-01 7.939546e-02 -2.080364e-01 -1.213985e-01 7.469104e-02 -1.853596e-01 -2.174510e-01 -1.089458e-02 -1.665560e-02 -1.965368e-01 -1.055233e-01 -7.406757e-02 -3.446575e-03 -1.071068e-01 1.598919e-01 2.407570e-01 2.471115e-01 2.033280e-01 -6.928199e-02 -1.541717e-02 9.410050e-02 -8.590098e-02 2.288336e-01 3.234052e-02 -1.592001e-01 3.179444e-01 6.282593e-01 3.716801e-01 7.747244e-02 5.100720e-01 6.840717e-01 2.686374e-01 -3.858005e-04 3.438108e-01 4.578497e-01 2.082590e-01 1.043729e-01 4.418947e-01 6.577600e-01 8.393571e-02 5.134582e-02 5.051932e-01 3.399938e-01 3.096056e-01 1.684845e-01 3.358746e-01 1.027084e-01 5.112769e-02 -5.428046e-02 1.172576e-01 5.864112e-02 -9.875238e-03 3.668178e-02 3.694944e-02 2.795663e-01 5.476504e-02 1.654410e-02 2.456510e-01 3.156336e-01 1.316277e-01 -9.769900e-04 2.241965e-01 2.011243e-01 3.883162e-02 1.047761e-02 1.445298e-01 1.178963e-01 1.219766e-01 1.096155e-01 1.262478e-01 2.090471e-02 8.656084e-03 2.978536e-02 2.682447e-02 1.030259e-01 3.238121e-02 -7.835988e-02 1.572659e-01 6.799208e-02 2.405666e-03 2.345225e-02 4.446206e-02 3.302254e-01 9.944246e-02 4.948281e-02 4.235807e-01 6.617841e-01 3.361010e-01 1.754910e-02 4.523511e-01 5.989695e-01 2.096475e-01 -3.824306e-02 4.131386e-01 2.479361e-01 1.921203e-01 6.280594e-02 2.347935e-01 4.316430e-02 2.983269e-02 3.200804e-02 1.137747e-02 1.475171e-01 6.960582e-02 -2.417964e-02 1.068723e-01 4.416407e-02 2.149740e-02 1.096139e-02 1.716150e-02 1.199445e-01 3.190452e-02 2.720412e-03 1.232484e-01 3.360926e-01 1.537379e-01 7.205407e-03 2.107735e-01 2.268626e-01 6.981489e-02 -9.130271e-02 2.437955e-01 2.308792e-01 2.280739e-01 1.807431e-01 1.926911e-01 5.630402e-03 -1.363543e-03 -1.180025e-02 2.188124e-03 6.930953e-02 5.840846e-02 -3.704925e-02 5.334151e-02 -2.911899e-02 -3.203923e-03 -5.661543e-03 -1.663204e-02 -1.401159e-01 -3.834541e-02 -4.192485e-02 -1.628797e-01 -3.591957e-01 -1.859506e-01 -1.518907e-02 -2.000279e-01 -3.281898e-01 -1.512868e-01 5.191664e-02 -2.224804e-01 -1.656991e-01 -1.546859e-01 -6.147981e-02 -1.373626e-01 -1.390148e-02 -1.249495e-02 -9.405235e-03 -6.071647e-03 -9.467848e-02 -1.989092e-02 1.755750e-02 -2.833453e-02
<VARIANCE> 448
 2.024930e-02 1.000000e-02 3.049093e-02 2.545940e-02 1.514756e-01 1.863284e-01 1.124384e-01 1.893121e-01 6.375881e-02 9.230991e-02 1.656255e-01 1.244382e-01 1.320415e-01 9.679330e-02 1.648313e-01 7.591534e-02 3.866284e-02 4.557510e-02 3.484891e-02 2.654286e-02 1.000000e-02 1.000000e-02 1.000000e-02 1.000000e-02 1.000000e-02 1.000000e-02 1.000000e-02 1.000000e-02 1.631422e-02 1.022300e-02 4.493700e-02 2.439586e-02 8.714454e-02 1.108612e-01 9.927966e-02 7.470375e-02 1.204665e-01 6.589872e-02 1.810967e-01 1.564197e-01 8.618555e-02 6.073773e-02 7.172968e-02 5.377957e-02 4.345111e-02 6.077628e-02 4.349257e-02 3.090045e-02 1.000000e-02 1.000000e-02 1.000000e-02 1.000000e-02 1.000000e-02 1.000000e-02 1.000000e-02 1.000000e-02 3.999465e-02 2.728727e-02 4.240733e-02 3.110488e-02 1.903492e-01 1.560173e-01 2.644693e-01 1.209244e-01 2.005408e-01 1.083663e-01 3.161609e-01 2.358415e-01 1.123018e-01 1.378836e-01 1.311913e-01 1.359733e-01 1.193672e-01 1.099924e-01 5.044918e-02 6.867411e-02 1.000000e-02 1.000000e-02 1.000000e-02 1.000000e-02 1.000000e-02 1.000000e-02 1.000000e-02 1.000000e-02 1.733477e-02 1.620675e-02 6.601287e-02 5.867963e-02 1.954042e-01 2.434852e-01 9.349515e-02 1.672100e-01 1.256279e-01 2.157662e-01 1.930142e-01 2.544791e-01 1.545575e-01 1.353704e-01 1.805577e-01 1.510833e-01 7.802033e-02 6.824274e-02 5.273013e-02 8.437142e-02 1.000000e-02 1.000000e-02 1.000000e-02 1.000000e-02 1.000000e-02 1.000000e-02 1.000000e-02 1.000000e-02 1.489767e-01 1.538664e-01 1.139127e-01 1.909970e-01 1.633722e-01 1.406556e-01 2.747333e-01 2.447774e-01 1.515498e-01 1.692856e-01 1.590023e-01 1.392199e-01 1.127910e-01 1.412001e-01 9.462158e-02 9.353071e-02 1.163971e-01 1.229810e-01 9.094995e-02 1.366236e-01 2.625496e-01 1.123111e-01 9.372909e-02 2.036752e-01 1.743878e-02 1.467089e-02 1.000000e-02 1.000000e-02 1.229570e-01 5.615025e-02 1.528892e-01 1.621312e-01 1.495951e-01 1.328703e-01 2.086202e-01 1.690282e-01 1.595700e-01 8.746687e-02 1.946682e-01 1.976323e-01 1.640781e-01 1.426081e-01 1.302205e-01 1.249051e-01 1.299313e-01 2.022454e-01 1.385112e-01 2.112856e-01 3.509627e-02 9.067720e-02 9.508502e-02 5.613239e-02 1.000000e-02 1.000000e-02 1.000000e-02 1.000000e-02 8.597099e-02 7.941631e-02 2.083558e-01 1.810475e-01 1.425440e-01 1.670785e-01 2.482824e-01 3.097914e-01 2.449132e-01 1.542009e-01 1.446143e-01 3.431014e-01 1.010313e-01 8.170360e-02 1.704908e-01 1.295769e-01 1.854039e-01 2.435420e-01 2.889309e-01 1.961265e-01 6.607875e-02 5.129359e-02 8.519676e-02 1.205389e-01 1.000000e-02 1.000000e-02 1.000000e-02 1.000000e-02 1.434389e-01 1.566065e-01 2.211881e-01 2.425809e-01 1.324148e-01 2.188420e-01 9.871091e-02 1.502013e-01 1.578302e-01 1.533238e-01 1.653279e-01 1.008336e-01 1.507363e-01 9.535592e-02 9.378469e-02 1.460980e-01 2.015856e-01 1.160994e-01 1.519356e-01 2.065140e-01 2.341031e-01 1.479997e-01 1.297404e-01 2.257961e-01 2.076544e-02 1.000000e-02 1.000000e-02 1.000000e-02 1.037535e-01 8.306236e-02 6.925991e-02 1.391453e-01 1.271022e-01 1.171856e-01 1.167916e-01 1.308253e-01 1.509840e-01 1.100598e-01 1.587182e-01 1.142373e-01 1.335251e-01 7.618341e-02 1.702999e-01 9.016283e-02 1.138240e-01 8.161672e-02 1.317986e-01 1.710430e-01 1.221045e-01 9.618073e-02 8.040962e-02 7.450452e-02 8.511486e-02 4.039970e-02 3.933200e-02 1.320271e-01 1.279671e-01 1.430102e-01 6.977656e-02 2.101267e-01 1.665076e-01 7.904407e-02 1.569692e-01 1.870914e-01 2.438698e-01 1.967419e-01 1.218448e-01 2.569208e-01 2.229616e-01 1.432958e-01 1.842668e-01 1.954005e-01 1.103482e-01 1.216663e-01 1.807053e-01 1.146809e-01 1.586732e-01 1.118989e-01 1.082238e-01 1.052993e-01 3.014967e-02 3.559066e-02 7.055831e-02 4.306765e-02 7.662030e-02 1.098899e-01 1.098818e-01 2.006492e-01 1.378961e-01 1.261368e-01 2.878473e-01 3.245313e-01 1.857205e-01 1.910177e-01 1.633026e-01 2.088181e-01 1.838328e-01 1.105763e-01 1.387831e-01 1.260644e-01 1.707478e-01 1.501772e-01 2.091158e-01 1.800037e-01 1.485894e-01 1.084508e-01 2.291016e-01 8.786962e-02 2.860643e-02 3.434210e-02 5.559947e-02 4.974283e-02 5.081275e-02 6.763858e-02 9.645633e-02 1.506277e-01 1.345322e-01 1.072574e-01 1.146063e-01 1.458421e-01 2.608238e-01 2.482937e-01 1.346225e-01 1.967504e-01 2.305065e-01 1.906653e-01 1.148903e-01 2.759836e-01 1.508676e-01 1.404335e-01 1.734076e-01 1.909631e-01 1.083947e-01 1.016606e-01 1.136499e-01 1.459247e-01 7.562301e-02 3.742348e-02 6.791775e-02 1.192956e-01 1.282713e-02 1.236678e-02 2.468975e-02 1.683639e-02 1.046880e-01 1.453358e-01 1.691424e-01 1.533960e-01 1.460644e-01 1.440299e-01 1.177900e-01 1.260578e-01 1.095726e-01 1.322552e-01 1.087310e-01 1.007675e-01 4.201755e-02 3.580262e-02 5.266648e-02 5.708382e-02 1.000000e-02 1.000000e-02 2.155335e-02 1.129959e-02 8.212271e-02 3.238963e-02 5.536217e-02 1.067818e-01 2.906229e-02 1.000000e-02 4.626148e-02 3.589693e-02 1.329933e-01 1.713094e-01 1.564478e-01 2.867298e-01 2.273274e-01 1.486166e-01 2.594482e-01 2.079774e-01 2.613356e-01 1.168732e-01 1.897794e-01 2.922276e-01 8.980722e-02 7.857222e-02 1.690911e-01 7.781774e-02 3.202939e-02 2.134328e-02 1.228376e-02 1.000000e-02 1.007866e-01 8.509580e-02 8.302468e-02 8.331194e-02 1.945902e-02 1.498936e-02 2.025992e-02 3.624346e-02 7.996169e-02 8.687554e-02 1.740889e-01 2.099333e-01 2.491256e-01 1.960151e-01 2.300160e-01 2.175437e-01 1.335745e-01 1.501324e-01 1.611246e-01 2.176897e-01 1.197354e-01 1.278661e-01 1.428836e-01 1.546979e-01 1.000000e-02 1.000000e-02 1.000000e-02 1.000000e-02 5.739840e-02 5.671846e-02 8.566082e-02 8.326995e-02 1.000000e-02 1.000000e-02 1.091663e-02 1.035762e-02 2.667597e-02 3.896314e-02 5.229387e-02 6.943245e-02 7.036366e-02 5.122499e-02 9.916807e-02 5.749829e-02 8.975457e-02 4.401772e-02 5.512742e-02 8.996701e-02 4.153084e-02 3.323374e-02 6.194423e-02 3.589713e-02 1.000000e-02 1.000000e-02 1.000000e-02 1.000000e-02 4.588880e-02 2.979262e-02 1.693904e-02 1.858906e-02
<GCONST> -3.455395e+02
<STATE> 4
<MEAN> 448
 2.268791e-01 6.665726e-02 -1.758799e-02 2.598778e-01 3.808199e-01 5.751042e-02 -1.075322e-01 2.555689e-01 6.004323e-01 2.580156e-01 2.726081e-02 4.010293e-01 2.435605e-01 1.376990e-01 1.345776e-01 1.514342e-01 1.254736e-01 9.524368e-02 -5.287760e-03 9.444903e-02 2.812485e-02 2.453964e-02 2.377714e-02 2.212349e-02 -2.611931e-04 2.208707e-03 -2.367150e-03 4.043509e-03 9.713474e-03 3.713066e-02 -8.434495e-03 1.917497e-02 1.021814e-01 4.139033e-02 -5.267525e-02 5.589886e-02 2.346804e-01 6.882147e-02 4.075748e-02 2.197887e-01 9.872815e-02 8.613734e-02 -3.821714e-02 2.790005e-02 5.773476e-02 8.760185e-03 2.393273e-02 2.114099e-02 8.539614e-04 3.514784e-03 -1.731847e-02 -5.839802e-03 6.982930e-04 1.619052e-03 -1.927682e-03 3.200176e-03 -6.299923e-02 -4.341642e-02 -3.614162e-02 1.698750e-02 -6.980830e-02 -6.720887e-02 -9.325989e-02 -3.579962e-02 -4.676807e-02 -2.396519e-02 -8.682875e-02 -1.105480e-01 -1.769326e-02 4.862612e-02 5.938017e-02 -9.206667e-02 6.858771e-02 2.728216e-02 4.654105e-02 6.372566e-03 -3.225572e-02 -2.961218e-02 9.511806e-04 1.108823e-03 8.237497e-04 -1.818737e-03 1.968920e-03 -4.117268e-04 1.752859e-01 1.438844e-01 7.346794e-02 1.666987e-01 3.546008e-01 7.495479e-02 -1.341871e-01 1.177974e-01 7.551237e-01 4.285412e-01 1.116240e-01 6.891139e-01 2.150045e-01 7.164018e-02 2.785006e-02 1.027737e-01 1.537434e-01 8.370954e-02 4.307794e-03 7.012742e-02 -5.104800e-03 -3.593152e-03 -2.451413e-02 -2.470424e-02 4.066571e-04 1.865092e-03 -8.305691e-04 3.283520e-03 3.156537e-01 1.212612e-01 -1.164181e-01 3.071486e-01 7.394097e-01 3.331014e-01 3.869830e-02 6.803567e-01 7.384020e-01 2.537234e-01 -2.152735e-01 5.186027e-01 9.256291e-01 4.577036e-01 5.677133e-02 8.535028e-01 5.111220e-01 3.605663e-01 1.556204e-01 4.624630e-01 3.047207e-01 2.591134e-01 1.163337e-01 3.852754e-01 8.568226e-03 7.012793e-03 6.207635e-04 1.728630e-03 1.441762e-01 9.771916e-02 -7.478452e-02 1.246652e-01 2.114291e-01 1.917267e-01 -2.210289e-02 1.348726e-01 2.782740e-01 1.634590e-01 -4.178729e-02 1.868303e-01 2.560734e-01 1.339103e-01 3.577380e-02 1.269573e-01 5.936894e-02 9.315963e-02 -9.570328e-02 1.479687e-01 9.175589e-02 7.970611e-02 8.515057e-02 9.085113e-02 8.979468e-04 3.533930e-03 2.538123e-03 -2.564545e-03 3.317449e-02 4.035537e-03 3.150192e-02 4.288832e-03 -3.555886e-02 -2.372582e-02 -1.677979e-02 -1.320225e-01 -6.893720e-02 -1.444404e-01 2.873650e-02 -2.790283e-02 -1.005572e-01 7.923450e-02 1.040629e-01 -2.412646e-01 -2.001083e-01 -2.264887e-01 -6.342600e-02 -1.434777e-01 -9.373956e-02 -1.186849e-01 -3.906193e-02 -2.083006e-01 -1.223850e-04 -1.268921e-03 1.755141e-03 -4.686172e-03 2.014663e-01 9.339638e-02 -1.433949e-01 2.535445e-01 5.728752e-01 2.694673e-01 8.056579e-02 5.431181e-01 8.205693e-01 1.802235e-01 -1.073191e-01 5.041122e-01 7.456379e-01 3.238934e-01 -6.439485e-02 6.093586e-01 2.989212e-01 3.592589e-01 1.137097e-01 2.728429e-01 2.674782e-01 2.220764e-01 8.831324e-02 3.083623e-01 5.387805e-03 5.681090e-03 -1.273623e-03 5.247926e-03 2.681502e-01 1.551477e-01 1.041749e-02 3.380718e-01 5.731020e-01 9.330567e-02 -1.278085e-01 3.710734e-01 8.087896e-01 3.209733e-01 7.903782e-02 7.355526e-01 8.373654e-01 2.447475e-01 -1.022985e-02 6.661274e-01 7.614589e-01 3.271108e-01 1.327393e-01 6.378879e-01 3.127785e-01 3.213035e-01 1.870363e-01 2.511015e-01 6.064265e-03 6.697881e-03 -2.186828e-03 5.889835e-03 1.063731e-01 6.926423e-02 3.898933e-02 2.079888e-01 4.587157e-01 1.672975e-01 -5.166377e-02 4.147632e-01 3.814425e-01 2.079215e-01 -1.854800e-02 2.628528e-01 4.250979e-01 1.684404e-01 -3.158871e-02 3.866644e-01 4.982839e-01 1.917209e-01 9.931874e-02 4.079495e-01 2.562583e-01 2.482632e-01 1.639205e-01 2.413987e-01 6.150660e-03 5.718787e-03 -8.069401e-04 2.394284e-03 -6.423004e-02 7.764103e-03 2.453906e-02 1.095253e-01 2.548786e-01 1.151727e-01 -1.930792e-02 2.068128e-01 3.830350e-02 9.266113e-02 1.497027e-02 -2.936301e-02 -1.042883e-02 -2.013609e-02 3.768846e-02 -3.269741e-02 1.285393e-01 8.580886e-03 -1.435401e-01 1.275494e-01 1.355926e-01 1.567638e-01 4.761457e-02 1.747563e-01 4.496034e-04 -3.499572e-03 2.032379e-03 -5.100591e-03 1.807673e-01 1.455370e-01 8.062850e-02 2.512714e-01 5.867881e-01 8.731721e-02 -1.800887e-01 5.288939e-01 8.746458e-01 2.548860e-01 -5.625584e-02 6.653789e-01 6.234865e-01 2.644225e-01 -3.808108e-02 5.100146e-01 6.919611e-01 2.959173e-01 7.446371e-02 6.949928e-01 2.962987e-01 3.138556e-01 2.474950e-01 3.390919e-01 3.396385e-03 3.122479e-03 -4.235604e-03 3.026298e-03 1.588989e-01 9.915005e-02 4.419380e-02 1.547642e-01 9.629390e-02 2.881519e-02 2.162243e-02 7.549708e-02 1.580173e-01 7.607905e-02 2.026389e-02 2.286780e-01 1.380844e-01 5.738648e-02 -2.069254e-02 1.141751e-01 9.218357e-02 9.078895e-02 1.030028e-02 2.991701e-02 5.703347e-03 -1.707586e-03 -7.398921e-03 8.022118e-04 8.649454e-03 -2.031470e-03 -5.108110e-03 4.167709e-03 1.910808e-01 6.676226e-02 -1.620203e-02 2.471458e-01 1.352252e-01 3.207581e-02 -1.339576e-02 1.097201e-01 2.315385e-01 1.368825e-01 -2.060556e-02 2.807572e-01 2.219479e-01 1.336044e-01 7.288143e-02 2.366674e-01 1.240895e-01 6.219452e-02 2.286093e-02 3.345115e-02 6.367979e-04 -1.954610e-03 -1.457588e-03 -1.819230e-03 1.884402e-03 5.569867e-04 -1.849886e-03 1.367840e-03 1.432859e-01 6.659577e-02 -4.290559e-04 1.234162e-01 8.974017e-02 -3.317508e-02 2.049149e-02 4.166834e-02 1.295597e-01 6.128780e-02 2.736170e-02 1.415196e-01 7.258309e-02 1.124664e-02 -1.970237e-02 6.887415e-02 4.884941e-02 5.280213e-02 -1.571157e-03 4.721892e-02 1.292192e-03 8.361448e-04 -1.995177e-03 5.952367e-03 1.700915e-03 8.435318e-04 -2.780869e-03 2.046392e-03 -9.954468e-02 -1.745565e-02 2.091119e-02 -9.730876e-02 -7.964482e-02 1.639502e-03 9.426101e-03 -4.546311e-02 -1.038348e-01 -6.329069e-02 -1.517721e-03 -1.203615e-01 -1.042117e-01 -4.930830e-02 -6.724746e-03 -9.399652e-02 -6.394042e-02 -3.224902e-02 -3.586851e-02 -9.363120e-03 -6.778466e-04 1.260021e-05 1.970999e-03 -1.249908e-03 -2.007119e-03 1.420010e-03 3.468946e-04 2.271192e-04
<VARIANCE> 448
 6.677260e-02 3.540389e-02 1.183809e-01 1.025863e-01 5.130307e-02 5.124056e-02 4.929165e-02 8.476217e-02 8.998521e-02 1.213695e-01 9.394630e-02 1.419554e-01 7.669523e-02 3.087106e-02 4.460750e-02 2.689436e-02 2.853329e-02 2.448793e-02 4.025958e-02 4.764376e-02 1.000000e-02 1.000000e-02 1.000000e-02 1.000000e-02 1.000000e-02 1.000000e-02 1.000000e-02 1.000000e-02 3.261264e-02 4.843694e-02 5.706954e-02 5.833275e-02 3.634919e-02 3.398221e-02 5.080357e-02 5.410846e-02 5.728611e-02 9.251902e-02 1.412533e-01 1.206684e-01 4.468879e-02 4.238159e-02 3.270434e-02 3.898672e-02 2.618752e-02 1.612696e-02 3.059034e-02 2.571229e-02 1.000000e-02 1.000000e-02 1.000000e-02 1.000000e-02 1.000000e-02 1.000000e-02 1.000000e-02 1.000000e-02 3.711422e-02 3.801142e-02 7.862257e-02 5.256341e-02 1.023533e-01 6.625692e-02 1.739551e-01 1.269510e-01 1.636002e-01 1.957486e-01 3.122843e-01 2.718248e-01 7.465687e-02 6.390653e-02 1.059348e-01 8.133145e-02 8.989953e-02 4.850470e-02 5.072935e-02 5.730275e-02 1.000000e-02 1.000000e-02 1.000000e-02 1.000000e-02 1.000000e-02 1.000000e-02 1.000000e-02 1.000000e-02 4.306493e-02 4.404786e-02 1.180043e-01 1.413395e-01 1.007035e-01 5.875529e-02 1.051964e-01 1.179262e-01 1.604880e-01 1.686425e-01 2.766385e-01 2.480285e-01 8.641424e-02 8.682156e-02 7.910506e-02 9.142866e-02 7.200748e-02 3.248229e-02 6.233272e-02 4.039541e-02 1.000000e-02 1.000000e-02 1.000000e-02 1.000000e-02 1.000000e-02 1.000000e-02 1.000000e-02 1.000000e-02 7.400632e-02 8.435194e-02 1.790855e-01 7.446347e-02 1.859961e-01 1.670705e-01 2.078533e-01 1.950282e-01 1.478649e-01 1.023014e-01 2.682848e-01 1.200994e-01 1.447325e-01 2.229348e-01 2.418348e-01 2.101169e-01 8.357716e-02 1.192598e-01 1.189093e-01 1.525335e-01 8.708882e-02 8.267448e-02 2.168421e-01 2.198836e-01 1.000000e-02 1.000000e-02 1.000000e-02 1.000000e-02 4.345744e-02 5.393696e-02 1.794881e-01 7.587115e-02 1.229299e-01 1.016111e-01 1.326126e-01 1.702639e-01 1.540943e-01 1.500715e-01 3.664272e-01 2.271135e-01 2.155535e-01 2.715602e-01 2.223829e-01 2.554166e-01 7.614343e-02 1.194116e-01 1.405771e-01 1.449041e-01 5.988254e-02 8.330246e-02 7.588714e-02 6.821016e-02 1.000000e-02 1.000000e-02 1.000000e-02 1.000000e-02 4.388164e-02 4.940548e-02 1.711778e-01 9.099329e-02 1.308606e-01 9.261680e-02 2.031844e-01 1.835747e-01 1.761767e-01 1.404311e-01 1.353266e-01 2.033053e-01 2.542014e-01 1.631806e-01 3.207877e-01 1.980754e-01 8.302227e-02 1.034249e-01 1.329789e-01 1.254509e-01 1.261415e-01 1.423921e-01 9.044365e-02 1.438376e-01 1.000000e-02 1.000000e-02 1.000000e-02 1.000000e-02 6.977607e-02 6.257533e-02 2.034024e-01 1.575553e-01 1.601859e-01 1.875997e-01 2.466536e-01 1.808697e-01 1.310469e-01 2.219771e-01 3.210697e-01 1.275952e-01 1.349862e-01 1.375576e-01 1.682533e-01 3.689377e-01 1.058669e-01 1.140641e-01 1.396257e-01 1.337819e-01 1.729294e-01 1.270554e-01 2.210322e-01 1.822966e-01 1.000000e-02 1.000000e-02 1.000000e-02 1.000000e-02 6.668026e-02 1.009480e-01 1.592116e-01 1.806989e-01 1.043127e-01 1.025647e-01 1.011554e-01 1.831233e-01 1.729586e-01 1.943351e-01 2.503079e-01 2.277437e-01 1.851464e-01 1.303084e-01 9.518731e-02 1.545852e-01 1.496208e-01 1.026717e-01 1.665753e-01 1.714562e-01 8.090805e-02 7.187919e-02 8.125648e-02 5.497721e-02 1.000000e-02 1.000000e-02 1.000000e-02 1.000000e-02 4.391350e-02 4.679344e-02 7.260474e-02 1.095951e-01 1.022425e-01 1.031403e-01 1.009328e-01 1.651137e-01 1.319355e-01 1.337571e-01 1.773169e-01 1.727380e-01 2.776146e-01 1.309227e-01 1.473672e-01 2.693112e-01 2.030465e-01 1.587915e-01 2.394187e-01 1.285711e-01 6.970893e-02 6.869568e-02 8.517497e-02 7.061717e-02 1.000000e-02 1.000000e-02 1.000000e-02 1.000000e-02 6.594703e-02 4.813684e-02 9.216719e-02 1.213575e-01 1.127489e-01 1.192529e-01 1.936580e-01 1.660424e-01 2.007841e-01 1.791686e-01 1.880586e-01 2.145001e-01 2.984482e-01 1.511181e-01 1.961398e-01 3.122233e-01 1.990403e-01 1.593669e-01 2.451924e-01 2.292305e-01 8.028774e-02 7.494905e-02 1.712013e-01 9.693430e-02 1.000000e-02 1.000000e-02 1.000000e-02 1.000000e-02 7.672802e-02 1.076340e-01 1.525573e-01 1.561995e-01 1.417744e-01 9.265721e-02 1.951631e-01 1.741205e-01 1.520477e-01 2.245639e-01 2.068727e-01 1.866558e-01 2.362146e-01 1.967282e-01 1.454492e-01 1.727777e-01 1.232983e-01 1.332184e-01 2.418126e-01 2.171192e-01 8.058192e-02 9.514554e-02 8.443958e-02 1.895888e-01 1.000000e-02 1.000000e-02 1.000000e-02 1.000000e-02 3.958992e-02 5.294744e-02 9.532736e-02 5.002178e-02 5.113333e-02 4.948016e-02 3.327138e-02 3.619523e-02 4.719817e-02 3.900874e-02 7.208073e-02 1.459820e-01 9.062951e-02 8.530888e-02 5.217104e-02 1.080744e-01 3.414897e-02 4.310899e-02 3.689938e-02 2.591047e-02 1.000000e-02 1.000000e-02 1.000000e-02 1.000000e-02 1.118189e-02 1.000000e-02 1.000000e-02 1.000000e-02 5.558094e-02 7.159737e-02 2.038967e-01 1.256938e-01 6.582364e-02 6.805900e-02 8.256094e-02 6.084545e-02 6.917535e-02 7.791508e-02 1.081381e-01 1.805770e-01 1.266942e-01 9.806027e-02 8.381376e-02 1.925342e-01 5.267397e-02 6.329649e-02 3.797526e-02 3.634071e-02 1.000000e-02 1.000000e-02 1.000000e-02 1.000000e-02 1.000000e-02 1.000000e-02 1.000000e-02 1.000000e-02 4.080223e-02 7.135304e-02 1.232901e-01 9.455571e-02 4.585591e-02 5.054513e-02 2.766132e-02 2.923279e-02 7.121372e-02 7.282373e-02 1.093441e-01 1.083624e-01 1.146891e-01 4.782752e-02 7.315949e-02 1.481339e-01 4.203299e-02 5.384897e-02 6.329289e-02 3.841629e-02 1.000000e-02 1.000000e-02 1.000000e-02 1.000000e-02 1.000000e-02 1.000000e-02 1.000000e-02 1.000000e-02 1.604607e-02 1.971136e-02 4.038743e-02 2.686800e-02 1.884048e-02 1.606096e-02 1.628669e-02 1.865126e-02 2.541315e-02 1.846951e-02 3.557352e-02 3.925916e-02 3.226473e-02 2.924835e-02 1.372598e-02 5.090512e-02 1.574779e-02 1.972515e-02 1.526446e-02 1.395443e-02 1.000000e-02 1.000000e-02 1.000000e-02 1.000000e-02 1.000000e-02 1.000000e-02 1.000000e-02 1.000000e-02
<GCONST> -4.547751e+02
<STATE> 5
<MEAN> 448
 1.550439e-01 -1.237330e-02 -8.016343e-02 2.255159e-01 3.294946e-01 1.496527e-01 3.604241e-02 1.590147e-01 6.270983e-01 3.368332e-02 -1.148404e-02 4.818309e-01 5.722274e-01 3.018897e-01 2.365113e-01 4.661464e-01 2.998721e-01 5.660594e-02 -2.776946e-02 1.078472e-01 1.044635e-01 9.567823e-02 4.362400e-02 2.905328e-02 3.039694e-04 5.150136e-03 -5.573431e-03 1.145699e-02 4.236393e-02 1.399424e-02 6.241715e-03 2.613696e-02 8.522806e-02 -9.064660e-02 -1.427045e-01 6.632816e-02 -2.341031e-02 8.273955e-02 -1.069110e-01 1.423181e-01 1.566762e-01 5.515632e-02 -5.671666e-02 1.875584e-02 1.438331e-01 1.117017e-01 5.330172e-02 1.303957e-01 3.220398e-02 3.872292e-02 -4.357397e-03 6.490021e-02 1.167072e-03 5.112877e-03 -5.743555e-03 8.592427e-03 5.357283e-02 -1.999773e-02 -1.322886e-02 -1.134131e-02 -3.110176e-01 -8.703892e-02 7.369795e-02 -1.328480e-01 -2.328911e-01 2.311128e-02 8.330223e-03 -5.826638e-02 -1.468588e-01 3.518534e-02 8.964688e-02 7.228360e-02 -1.981132e-02 5.928272e-02 3.771313e-02 1.226358e-01 1.190069e-02 9.333494e-03 6.791665e-02 -8.534829e-03 1.729531e-03 -6.500802e-03 5.453759e-03 -4.060289e-03 1.560866e-01 4.256811e-02 -4.272816e-03 2.054478e-01 3.314453e-01 -1.115001e-02 -1.581379e-01 4.305597e-02 5.579141e-01 7.736374e-02 -1.484073e-01 4.120129e-01 5.597782e-01 5.279686e-02 -1.243144e-01 3.637610e-01 3.300184e-01 2.299857e-01 1.210292e-01 1.526051e-01 1.052710e-01 7.982037e-02 2.883961e-02 1.784972e-02 -3.391911e-04 7.247809e-03 -1.099343e-03 9.073659e-03 2.284973e-01 1.201262e-01 -1.841212e-02 2.576480e-01 7.965184e-01 3.306100e-01 -1.805695e-01 6.889428e-01 8.544930e-01 4.529812e-01 4.435970e-02 8.272558e-01 6.097865e-01 1.931535e-01 -1.165332e-01 4.956445e-01 4.236492e-01 1.769802e-01 2.420226e-02 2.415976e-01 5.465870e-01 3.035464e-01 -2.440842e-02 4.537100e-01 1.922757e-01 1.855304e-01 -9.197544e-02 1.783341e-01 5.812605e-02 7.743474e-02 3.610851e-02 1.171473e-01 2.741917e-01 2.027351e-02 -2.952377e-01 2.897407e-01 2.454589e-01 -5.725693e-02 -1.955295e-01 1.567487e-01 3.408538e-01 1.241041e-01 2.193056e-01 1.182843e-01 1.022491e-01 7.434659e-02 1.567671e-02 3.006987e-02 2.563806e-01 2.632119e-01 2.749344e-01 3.959593e-01 -9.606845e-02 -1.077653e-01 5.201114e-02 -1.056793e-01 -9.074086e-02 -4.354221e-02 -1.080299e-01 -1.950995e-01 -2.201738e-01 8.506442e-02 -1.406841e-01 -3.539484e-01 7.995222e-02 -2.799960e-01 -1.353374e-01 1.082624e-01 -4.307851e-02 -4.048242e-02 -1.375550e-01 -6.296398e-02 -1.563464e-01 -1.187564e-01 -1.095606e-01 -4.954066e-02 -1.831453e-01 -2.797733e-02 -1.165027e-01 -5.416838e-02 -1.013546e-01 -5.444820e-02 1.200640e-01 -1.433772e-01 2.314138e-01 1.124988e-01 4.760262e-02 3.229566e-01 7.757095e-01 2.780690e-01 -4.605572e-01 9.109636e-01 5.769840e-01 1.942749e-01 5.405924e-02 5.498283e-01 5.795135e-01 3.706984e-01 -1.071933e-01 4.841740e-01 3.285187e-01 1.835898e-01 1.895944e-01 7.220475e-02 3.989260e-01 2.571313e-01 2.227293e-01 4.122000e-01 8.979671e-02 6.291798e-02 -7.763859e-02 1.549466e-01 4.266771e-01 2.721864e-01 3.437322e-01 6.246292e-01 4.043118e-01 9.117694e-02 -1.968998e-01 3.776985e-01 7.832593e-01 9.455772e-02 -1.811418e-01 6.253701e-01 7.022814e-01 3.648406e-01 4.787250e-02 4.202926e-01 7.297083e-01 4.960709e-01 1.858411e-01 4.621365e-01 4.774196e-01 3.194614e-01 1.801497e-01 2.341104e-01 1.649305e-01 2.971584e-01 1.797359e-01 2.094306e-01 1.198582e-01 2.657222e-01 1.537581e-01 2.103314e-01 3.986903e-01 4.106428e-02 -9.924170e-02 3.062170e-01 4.362002e-01 2.028333e-01 2.147660e-01 3.331434e-01 5.305970e-01 3.282200e-01 2.339396e-01 3.558218e-01 4.910608e-01 3.206663e-01 1.960657e-01 3.747102e-01 3.546841e-01 2.288584e-01 5.076736e-02 1.861070e-01 1.656689e-01 1.329095e-01 3.403888e-04 3.546337e-02 -5.346813e-02 -1.014773e-02 1.205291e-01 -9.452351e-02 3.287657e-01 6.223056e-02 -6.460519e-02 1.679896e-01 2.143836e-02 1.280699e-01 3.015485e-02 -3.374722e-03 3.583356e-01 2.017866e-01 -1.150495e-01 3.544325e-01 1.726075e-01 1.611107e-01 -1.068656e-01 3.215139e-01 1.092727e-01 1.390709e-01 2.309777e-02 2.109792e-01 1.098904e-01 8.968254e-02 1.605771e-02 -8.668461e-02 1.987434e-01 1.416065e-01 3.108892e-01 3.881855e-01 5.678293e-01 5.521972e-03 -1.507109e-01 3.705298e-01 6.674543e-01 3.632111e-01 9.108250e-02 7.081485e-01 5.035391e-01 2.054043e-01 -1.710362e-01 4.357873e-01 7.131199e-01 1.744618e-01 -1.851338e-02 6.037049e-01 3.783948e-01 2.675073e-01 9.217342e-02 3.427552e-01 1.880813e-01 2.111583e-01 2.545639e-02 1.560118e-01 2.602262e-01 8.605083e-02 -1.216320e-02 3.182800e-01 2.451359e-02 1.155973e-02 -3.792181e-02 3.254329e-02 5.456118e-02 2.106825e-02 -2.660375e-02 4.637936e-02 8.158704e-02 4.005940e-02 8.767667e-02 1.668501e-01 5.001188e-02 4.530108e-02 2.808266e-02 6.036162e-02 7.753313e-02 -8.212782e-03 -7.648294e-02 -2.623880e-02 1.588701e-02 1.145791e-03 -9.679304e-03 9.316485e-03 3.685706e-01 2.631298e-01 6.257717e-02 4.724492e-01 1.187239e-01 -4.924155e-02 -4.344985e-02 7.385688e-02 1.084927e-01 4.272974e-02 -2.200595e-02 1.551449e-02 1.234676e-01 5.250578e-02 5.490442e-02 2.261439e-01 7.766513e-02 1.419874e-02 -7.256725e-03 3.294356e-02 9.101257e-02 9.010602e-02 1.786722e-02 1.008744e-01 5.579008e-03 2.461676e-03 -2.352743e-03 9.864119e-03 2.193405e-01 2.451012e-01 1.120573e-01 2.697175e-01 8.866875e-03 2.997944e-03 -7.355232e-03 9.035788e-03 -2.564566e-02 3.472240e-02 -3.887631e-02 3.759392e-02 4.090917e-02 1.959846e-02 -8.520114e-02 7.456847e-02 1.095381e-01 8.216497e-02 4.224063e-02 9.787048e-02 1.109121e-01 9.258670e-02 3.697792e-02 7.130777e-02 1.359766e-02 6.642321e-03 -9.570667e-03 8.230197e-03 -1.690580e-01 -1.483511e-01 -4.815673e-02 -1.993544e-01 -4.953480e-02 1.600010e-02 2.587473e-02 -3.400415e-02 -4.525392e-02 -2.482776e-02 1.114086e-02 -9.274181e-03 -7.516515e-02 -1.710620e-02 1.491268e-02 -1.152794e-01 -8.910181e-02 -3.988679e-02 -6.399943e-03 -6.085648e-02 -8.032503e-02 -7.598520e-02 -2.707371e-02 -8.817162e-02 -9.045833e-03 6.886655e-03 9.301628e-04 -2.907963e-03
<VARIANCE> 448
 6.299390e-02 2.126379e-02 3.879151e-02 1.166328e-01 9.288327e-02 6.082899e-02 3.740038e-02 7.031540e-02 1.932975e-01 1.331760e-01 9.174892e-02 1.651747e-01 6.981554e-02 8.049538e-02 1.625290e-01 1.039011e-01 2.510178e-02 5.262864e-02 2.637471e-02 4.463611e-02 2.559433e-02 2.111903e-02 1.434428e-02 1.395365e-02 1.000000e-02 1.000000e-02 1.000000e-02 1.000000e-02 4.750961e-02 2.676489e-02 6.547093e-02 3.590584e-02 6.209038e-02 5.452441e-02 4.708827e-02 5.076624e-02 1.160027e-01 4.282773e-02 2.153263e-01 2.879108e-01 7.730772e-02 9.821414e-02 1.387933e-01 1.565468e-01 3.370761e-02 5.203314e-02 4.877668e-02 6.225809e-02 1.707065e-02 2.275144e-02 1.730403e-02 1.000000e-02 1.000000e-02 1.000000e-02 1.000000e-02 1.000000e-02 1.154648e-01 1.425843e-02 4.318035e-02 2.543969e-02 1.194310e-01 3.016568e-01 1.063646e-01 1.213367e-01 1.858419e-01 1.415866e-01 2.395263e-01 1.766660e-01 1.498523e-01 7.918809e-02 1.507927e-01 3.190507e-01 1.651794e-01 2.428206e-01 1.301762e-01 1.251625e-01 4.683715e-02 5.027372e-02 3.646128e-02 2.347624e-02 1.000000e-02 1.000000e-02 1.000000e-02 1.000000e-02 8.499090e-02 3.818263e-02 7.885519e-02 1.978295e-01 1.212211e-01 7.268362e-02 7.665376e-02 2.351735e-01 1.709260e-01 1.051924e-01 2.012976e-01 4.288033e-01 1.838374e-01 1.733329e-01 2.173892e-01 1.979810e-01 8.214639e-02 8.582278e-02 1.557496e-01 5.773111e-02 3.271026e-02 4.132043e-02 3.821870e-02 2.463221e-02 1.000000e-02 1.000000e-02 1.000000e-02 1.000000e-02 6.818371e-02 6.584290e-02 1.078609e-01 1.389352e-01 2.323303e-01 1.752728e-01 1.918680e-01 1.926735e-01 1.392753e-01 1.932730e-01 3.052126e-01 2.190329e-01 1.163434e-01 9.643786e-02 2.432866e-01 1.120241e-01 6.325921e-02 9.552560e-02 9.196909e-02 1.460688e-01 1.243483e-01 1.212944e-01 1.419161e-01 1.714803e-01 9.216335e-02 1.161423e-01 4.391128e-02 7.643113e-02 4.665189e-02 2.979543e-02 8.328187e-02 3.910814e-02 1.204139e-01 1.019994e-01 1.771145e-01 1.672380e-01 1.992265e-01 2.146893e-01 1.264998e-01 2.210890e-01 2.021907e-01 9.962141e-02 9.730368e-02 1.771180e-01 8.434346e-02 9.422140e-02 6.707375e-02 8.156963e-02 1.096362e-01 2.177810e-01 9.923278e-02 1.482082e-01 3.011948e-02 9.530374e-02 2.604358e-02 4.947041e-02 3.394169e-02 7.263129e-02 2.131196e-01 1.264585e-01 1.280297e-01 1.439964e-01 3.926065e-01 2.067079e-01 1.467209e-01 1.176204e-01 1.296563e-01 3.364623e-01 3.966810e-01 3.672236e-01 1.808288e-01 1.569333e-01 1.351236e-01 1.143479e-01 1.067477e-01 6.766100e-02 6.081593e-02 7.286261e-02 8.641217e-02 2.995740e-01 4.989492e-02 5.759187e-02 5.276773e-02 4.325505e-02 6.844488e-02 9.681550e-02 1.885181e-01 1.301621e-01 1.458798e-01 2.357208e-01 3.110940e-01 2.398210e-01 1.593622e-01 9.409865e-02 1.591162e-01 2.973729e-01 2.272830e-01 1.126989e-01 1.754490e-01 1.694622e-01 1.040989e-01 5.378983e-02 8.067198e-02 9.253914e-02 2.699592e-01 1.912063e-01 2.742094e-01 1.654325e-01 7.138019e-02 8.615888e-02 6.438854e-02 7.346506e-02 1.075592e-01 1.113573e-01 2.114451e-01 2.649690e-01 1.590391e-01 1.020375e-01 1.335442e-01 1.526563e-01 1.850418e-01 1.137304e-01 2.123577e-01 1.262443e-01 1.481764e-01 1.674662e-01 8.281088e-02 1.906108e-01 1.482671e-01 1.958128e-01 1.535619e-01 6.501437e-02 8.059018e-02 1.294859e-01 8.707910e-02 7.010730e-02 6.878093e-02 1.655955e-01 1.897627e-01 1.319725e-01 5.346155e-02 1.393506e-01 1.013503e-01 9.605965e-02 8.655638e-02 9.099526e-02 1.100253e-01 8.072523e-02 2.453218e-01 1.034354e-01 1.787391e-01 1.419996e-01 1.604842e-01 1.016652e-01 2.369884e-01 1.434935e-01 9.636306e-02 1.310696e-01 2.279192e-01 9.888395e-02 1.240441e-01 1.743823e-01 1.043505e-01 1.654373e-01 7.254865e-02 6.123389e-02 4.556457e-02 2.002975e-02 6.411127e-02 8.093931e-02 1.468979e-01 1.150927e-01 1.388230e-01 1.707960e-01 1.179234e-01 1.083802e-01 2.099241e-01 1.727522e-01 2.050058e-01 1.807413e-01 2.755560e-01 1.121538e-01 1.179428e-01 2.283573e-01 2.527564e-01 1.069002e-01 1.332589e-01 2.489811e-01 1.938249e-01 1.228666e-01 1.597511e-01 2.818433e-01 2.786798e-02 6.328242e-02 4.278918e-02 5.899525e-02 8.180653e-02 1.276026e-01 2.650837e-01 1.689798e-01 2.027317e-01 1.585782e-01 1.424287e-01 1.402063e-01 1.434877e-01 1.272358e-01 2.865380e-01 1.563812e-01 2.146434e-01 1.269897e-01 3.447246e-01 2.077116e-01 1.320164e-01 2.196321e-01 3.470903e-01 2.153663e-01 1.197330e-01 1.024415e-01 1.433251e-01 1.232211e-01 1.214211e-01 2.554093e-01 1.292086e-01 8.441072e-02 6.775157e-02 7.129506e-02 8.116127e-02 7.010871e-02 1.000000e-02 1.000000e-02 1.478998e-02 2.777419e-02 2.002465e-02 1.000000e-02 5.124440e-02 3.415476e-02 5.281187e-02 6.924864e-02 7.951554e-02 7.453243e-02 1.578784e-02 1.661859e-02 1.000000e-02 3.070222e-02 1.964517e-02 1.681818e-02 2.820528e-02 2.774237e-02 2.262587e-02 1.000000e-02 1.012112e-02 1.000000e-02 8.333506e-02 1.549579e-01 2.559668e-01 2.292057e-01 6.370677e-02 3.304236e-02 2.619911e-02 3.474221e-02 5.342278e-02 3.573401e-02 3.636198e-02 4.795644e-02 6.970241e-02 2.300953e-02 1.053144e-01 1.135886e-01 5.593367e-02 1.000000e-02 1.000000e-02 3.112193e-02 2.699737e-02 4.619830e-02 7.832482e-02 4.349129e-02 1.000000e-02 1.000000e-02 1.000000e-02 1.113173e-02 1.017383e-01 1.137294e-01 1.700926e-01 1.842890e-01 1.000000e-02 1.000000e-02 2.792869e-02 2.227244e-02 1.944499e-02 1.722900e-02 2.522248e-02 1.943948e-02 4.588175e-02 1.582580e-02 1.105815e-01 7.595022e-02 1.061249e-01 5.302104e-02 2.031212e-02 9.357142e-02 5.907236e-02 7.519580e-02 7.126802e-02 3.875903e-02 1.250740e-02 1.000000e-02 1.000000e-02 1.000000e-02 1.743554e-02 3.260722e-02 7.604937e-02 6.710545e-02 1.366612e-02 1.000000e-02 1.087118e-02 1.000000e-02 1.031056e-02 1.000000e-02 1.000000e-02 1.000000e-02 3.285204e-02 1.000000e-02 2.217021e-02 2.711082e-02 5.633957e-02 1.063454e-02 1.000000e-02 2.555922e-02 1.892711e-02 3.276335e-02 5.137339e-02 2.513041e-02 1.000000e-02 1.000000e-02 1.000000e-02 1.000000e-02
<GCONST> -3.639563e+02
<STATE> 6
<MEAN> 448
 2.672528e-01 5.990692e-02 -6.992583e-02 2.249833e-01 8.028566e-01 2.477570e-01 -1.096562e-02 7.035149e-01 8.128396e-01 4.356022e-01 -1.993078e-01 6.791316e-01 6.075140e-01 2.150269e-01 1.548871e-01 4.256504e-01 3.612410e-01 2.573997e-01 -1.032580e-01 3.191811e-01 4.482551e-02 5.607302e-02 2.558925e-02 6.165246e-03 4.842518e-03 8.226103e-03 -4.243602e-03 1.032738e-02 -6.010266e-02 9.734535e-03 8.842601e-03 -3.547636e-02 -4.416924e-03 -1.248203e-02 -3.468827e-01 -1.164242e-02 3.783174e-01 2.230326e-01 2.265009e-01 1.814760e-01 2.390572e-01 1.604590e-01 3.254915e-02 2.710794e-02 4.522682e-02 2.761151e-02 1.762968e-01 -2.170897e-03 6.548177e-03 -1.541068e-02 8.214065e-03 6.821027e-02 3.627093e-03 3.188408e-03 -2.755112e-03 5.723688e-03 -1.701471e-01 -5.723543e-02 1.007942e-01 -1.563559e-01 -2.241053e-01 -3.376445e-01 -4.094067e-01 -5.415103e-02 -6.281449e-02 1.130381e-01 1.667551e-01 1.765714e-02 -9.305734e-02 1.208164e-01 2.996306e-01 -1.073211e-01 -3.226450e-02 -1.552939e-02 2.879586e-01 -9.200546e-02 -5.186672e-02 -2.543058e-02 -1.051632e-02 -7.552075e-02 1.445184e-03 -1.282730e-02 3.509598e-03 -4.124367e-03 2.065658e-01 3.394593e-02 -1.271655e-01 2.228650e-01 8.155369e-01 5.238156e-02 -2.085946e-01 6.405827e-01 9.420168e-01 4.154627e-01 1.355907e-01 7.536917e-01 6.149014e-01 1.929278e-01 8.756628e-02 3.955462e-01 3.188008e-01 4.226089e-01 -6.598490e-02 3.324656e-01 2.063596e-02 5.350332e-03 1.579002e-03 3.004252e-02 2.099197e-03 -3.194194e-03 -3.204498e-03 1.186247e-02 9.344528e-01 2.122127e-01 -5.002217e-01 9.648873e-01 1.094441e+00 5.882292e-01 1.460017e-01 6.175588e-01 7.711000e-01 2.179958e-01 -1.898659e-01 7.959885e-01 5.532150e-01 2.387497e-01 -1.103995e-02 4.213531e-01 5.784926e-01 1.556497e-01 -2.497352e-02 3.897839e-01 9.217423e-01 5.521289e-01 2.386411e-01 7.028159e-01 1.435728e-02 1.270233e-02 8.052711e-04 5.006857e-03 5.086937e-01 3.428761e-02 -3.732580e-01 3.563500e-01 7.881360e-01 4.570464e-01 1.643119e-01 4.534194e-01 1.727355e-01 2.175297e-01 2.737410e-02 2.662751e-01 7.794363e-03 -4.870255e-02 -6.769108e-02 -3.809432e-02 2.192345e-01 9.333766e-02 1.265706e-03 1.311421e-01 9.546748e-02 2.043353e-01 1.844425e-01 3.140184e-01 -1.060392e-03 -1.138155e-03 5.110230e-03 -3.496923e-03 2.615056e-01 -1.581962e-01 -2.059770e-01 -9.901572e-02 1.784391e-01 1.920905e-01 3.080493e-01 5.918137e-02 -1.805943e-01 -1.119153e-01 -1.366640e-01 -6.469730e-02 -2.089316e-01 3.175553e-02 3.388125e-02 -1.043018e-01 4.056118e-02 7.472276e-02 -1.015448e-01 1.582064e-02 -1.546086e-01 2.170976e-02 -1.173822e-01 -1.117771e-01 -3.730059e-03 -2.073798e-03 3.464688e-03 -7.538221e-03 8.002213e-01 2.445884e-02 -4.419380e-01 8.532676e-01 6.402626e-01 1.990152e-01 1.089701e-02 4.581152e-01 4.270063e-01 2.703671e-01 -4.984048e-02 4.085644e-01 3.804807e-01 1.513083e-01 -1.896506e-02 2.062487e-01 4.067934e-01 1.198811e-01 4.275566e-02 7.885358e-02 5.886708e-01 3.075184e-01 2.510057e-01 5.765651e-01 8.996211e-03 1.324390e-02 -9.021449e-04 9.513823e-03 3.185621e-01 1.722448e-02 -1.119049e-01 2.018344e-01 4.455449e-01 1.710529e-01 -6.171376e-03 3.445086e-01 6.337135e-01 2.888049e-01 -6.389228e-02 5.736357e-01 4.448732e-01 1.808272e-01 -1.864703e-02 3.509503e-01 4.064725e-01 3.190131e-01 -6.273298e-04 3.563485e-01 3.927440e-01 3.530651e-01 3.369416e-01 3.453925e-01 6.495888e-02 8.564176e-02 2.258986e-02 4.699507e-02 2.608026e-01 -2.993358e-02 -1.040941e-01 1.728463e-01 4.870753e-01 1.713907e-01 1.010694e-03 3.126681e-01 4.565693e-01 2.883554e-01 8.920597e-03 3.852984e-01 4.257047e-01 2.169723e-01 -3.176624e-02 3.366329e-01 4.883007e-01 3.101628e-01 -8.129733e-02 4.614838e-01 3.741474e-01 3.293788e-01 3.103536e-01 3.811260e-01 7.881902e-02 8.051576e-02 6.081278e-02 4.396341e-02 1.313076e-01 3.172989e-02 -4.934837e-02 1.400801e-01 3.979930e-01 2.632776e-01 -7.105570e-02 4.126533e-01 2.564097e-01 1.846380e-01 -5.886333e-02 2.530466e-01 2.556108e-01 9.314312e-02 1.835437e-02 2.225218e-01 3.704445e-01 6.514759e-02 -1.761541e-01 4.202637e-01 2.196452e-01 1.561455e-01 1.071925e-01 1.621379e-01 1.119844e-01 7.417408e-02 6.716698e-02 4.672100e-02 2.107208e-01 3.787913e-03 -1.722779e-02 1.063370e-01 5.122176e-01 1.878828e-01 -1.022674e-01 4.302677e-01 5.312244e-01 3.054703e-01 -4.279575e-03 5.107028e-01 4.766316e-01 2.009380e-01 -2.939524e-02 3.557411e-01 5.831984e-01 2.953420e-01 2.918622e-02 5.296817e-01 2.460266e-01 1.537508e-01 4.946029e-03 4.647561e-02 3.907911e-02 2.757950e-02 2.232405e-02 -2.306458e-02 8.252183e-02 -1.280307e-02 -2.527088e-02 5.187391e-02 2.462340e-02 -9.597114e-03 -5.808587e-03 1.402379e-02 -2.816217e-03 3.731871e-03 4.828576e-03 7.837124e-03 2.837465e-02 5.880369e-03 -5.118176e-03 3.495420e-02 1.394408e-03 1.170929e-03 -1.818085e-04 1.528012e-03 4.107845e-03 9.603938e-03 -3.117541e-02 3.447502e-02 1.034378e-01 6.362190e-02 -1.863547e-02 1.004867e-01 1.030305e-01 3.933694e-02 -2.005676e-02 1.444016e-01 4.803061e-02 -7.243171e-03 5.850081e-03 1.735944e-02 8.269570e-03 2.632315e-03 -6.086250e-03 1.491058e-02 2.692394e-02 1.508510e-02 -5.971125e-03 1.449264e-02 4.145952e-03 -4.116217e-04 -1.156151e-04 4.366796e-03 1.702306e-02 -4.294107e-03 -1.224319e-02 -2.916145e-03 8.764472e-02 3.285772e-02 -1.648796e-02 1.484405e-01 9.213418e-03 4.276085e-02 -2.134874e-02 3.938387e-02 3.103601e-03 2.776172e-03 2.494830e-02 -3.641102e-03 8.110083e-03 7.134168e-04 -7.059555e-03 -1.180406e-02 2.572968e-02 4.033834e-02 2.242402e-02 -6.049016e-03 -2.389514e-03 -6.099490e-04 1.060715e-03 1.150463e-03 1.103255e-03 -3.996330e-03 1.492822e-02 -1.247405e-02 5.728368e-02 1.377481e-01 1.424459e-01 5.105172e-02 -4.189850e-02 -1.784285e-02 1.189020e-02 -6.905349e-02 -1.713567e-02 1.851962e-04 -1.129513e-02 -1.459162e-02 -4.271537e-03 -1.645099e-03 4.132709e-03 -4.669172e-03 -1.670285e-02 -1.316545e-02 4.169581e-03 3.660892e-04 -7.093507e-04 3.027454e-04 -1.990741e-04 -2.154334e-03 -9.317997e-03 2.781286e-03 1.971292e-03 3.834373e-03 -3.017380e-02 1.486333e-03 -5.330382e-02 -9.201232e-02
<VARIANCE> 448
 7.285827e-02 4.673423e-02 1.155620e-01 1.039059e-01 1.855975e-01 1.036995e-01 1.073944e-01 2.551749e-01 1.031651e-01 1.094265e-01 1.877612e-01 1.471324e-01 9.822287e-02 1.367721e-01 1.007285e-01 1.016764e-01 6.901720e-02 6.885674e-02 1.121370e-01 6.780139e-02 1.155464e-02 1.241705e-02 1.187638e-02 1.000000e-02 1.000000e-02 1.000000e-02 1.000000e-02 1.000000e-02 4.208633e-02 4.614542e-02 4.072672e-02 3.363415e-02 1.028388e-01 5.807960e-02 2.105807e-01 9.563860e-02 1.525911e-01 1.068561e-01 1.534203e-01 1.776129e-01 4.409440e-02 1.251945e-01 1.069204e-01 8.773892e-02 6.134624e-02 6.256585e-02 4.392526e-02 4.539267e-02 1.000000e-02 1.425047e-02 1.158892e-02 1.000000e-02 1.000000e-02 1.000000e-02 1.000000e-02 1.000000e-02 1.012379e-01 4.120152e-02 1.506884e-01 1.374810e-01 8.348887e-02 3.614147e-01 3.921673e-01 2.107737e-01 2.437798e-01 2.773353e-01 1.866710e-01 2.197323e-01 1.108228e-01 1.674201e-01 3.315764e-01 1.117239e-01 1.573669e-01 1.947673e-01 2.034855e-01 1.272780e-01 1.022868e-02 1.248683e-02 1.137805e-02 1.141826e-02 1.000000e-02 1.000000e-02 1.000000e-02 1.000000e-02 8.588411e-02 4.472227e-02 1.598642e-01 1.755413e-01 2.404701e-01 2.219095e-01 2.348654e-01 3.952368e-01 3.058270e-01 2.149611e-01 3.781005e-01 2.860829e-01 1.141075e-01 1.855992e-01 1.962267e-01 1.545178e-01 1.445637e-01 1.755724e-01 2.822650e-01 1.434348e-01 1.000000e-02 1.000000e-02 1.916662e-02 1.000000e-02 1.000000e-02 1.000000e-02 1.000000e-02 1.000000e-02 1.828029e-01 1.922701e-01 2.888381e-01 2.182743e-01 1.917257e-01 1.379504e-01 2.018023e-01 1.684198e-01 1.249454e-01 1.340070e-01 2.203290e-01 2.309614e-01 1.069388e-01 8.948106e-02 1.216688e-01 8.868820e-02 9.363652e-02 1.362239e-01 1.057118e-01 1.692802e-01 2.779578e-01 1.759341e-01 1.331824e-01 3.824165e-01 1.749898e-02 1.000967e-02 1.000000e-02 1.000000e-02 2.220577e-01 1.758348e-01 2.506862e-01 1.831695e-01 2.471068e-01 1.652093e-01 1.334950e-01 2.516910e-01 1.035395e-01 1.630488e-01 2.746272e-01 1.534614e-01 1.176704e-01 7.837722e-02 1.314038e-01 1.037955e-01 1.419482e-01 2.032801e-01 2.205496e-01 1.584225e-01 1.929398e-01 3.333280e-01 1.479392e-01 2.147458e-01 1.000000e-02 1.000000e-02 1.000000e-02 1.000000e-02 1.463346e-01 9.296295e-02 1.559674e-01 3.162064e-01 3.561682e-01 2.243521e-01 1.995786e-01 3.242877e-01 1.284133e-01 1.698190e-01 2.270535e-01 1.409769e-01 1.348485e-01 9.573500e-02 1.282002e-01 1.509552e-01 1.924850e-01 2.760256e-01 9.291629e-02 1.133553e-01 2.689967e-01 1.950358e-01 2.872270e-01 2.055361e-01 1.000000e-02 1.000000e-02 1.000000e-02 1.000000e-02 1.418497e-01 1.376642e-01 2.383514e-01 3.714361e-01 1.616604e-01 1.022310e-01 1.427753e-01 2.328405e-01 1.156709e-01 1.234708e-01 1.155008e-01 2.019497e-01 2.073417e-01 1.220547e-01 1.043063e-01 1.455681e-01 3.682492e-01 7.705103e-02 9.018959e-02 1.110240e-01 1.999460e-01 3.863688e-01 3.216879e-01 3.749014e-01 1.000000e-02 2.696641e-02 1.000000e-02 1.230144e-02 8.881652e-02 3.648610e-02 7.109921e-02 8.668031e-02 1.217758e-01 1.216397e-01 1.338395e-01 1.361275e-01 1.668170e-01 1.273066e-01 2.232606e-01 1.886523e-01 9.724928e-02 5.894380e-02 1.015807e-01 1.591405e-01 9.512939e-02 1.189872e-01 7.376256e-02 7.579327e-02 9.860871e-02 1.213965e-01 1.051668e-01 1.207469e-01 1.366988e-02 4.054629e-02 2.801712e-02 1.506141e-02 7.808524e-02 3.208072e-02 5.751449e-02 7.796062e-02 5.270936e-02 8.892009e-02 1.203398e-01 1.129939e-01 1.093103e-01 1.002819e-01 1.699731e-01 1.520775e-01 1.589497e-01 1.288192e-01 1.004034e-01 1.986001e-01 9.032623e-02 1.405154e-01 8.318769e-02 1.650680e-01 1.096457e-01 9.816208e-02 1.194563e-01 1.450746e-01 3.800380e-02 4.384515e-02 3.417472e-02 1.919294e-02 4.507822e-02 4.725561e-02 5.338704e-02 7.929513e-02 9.926678e-02 7.329339e-02 1.371914e-01 1.214989e-01 1.318873e-01 1.491679e-01 2.486159e-01 1.639822e-01 1.652309e-01 8.634821e-02 1.068381e-01 1.292987e-01 1.451707e-01 1.274500e-01 1.416497e-01 2.012441e-01 1.207305e-01 7.571962e-02 1.130024e-01 8.350687e-02 5.964188e-02 6.340510e-02 4.864696e-02 1.784107e-02 6.508287e-02 3.979471e-02 6.450351e-02 8.329203e-02 1.165324e-01 1.012387e-01 1.445119e-01 1.032884e-01 1.843275e-01 1.267898e-01 1.750398e-01 2.644477e-01 1.564643e-01 1.168357e-01 1.116525e-01 1.481586e-01 2.314251e-01 1.505543e-01 1.120240e-01 2.062572e-01 4.753255e-02 5.617350e-02 1.032211e-01 7.157087e-02 4.058846e-02 5.517313e-02 3.710228e-02 3.379806e-02 3.205053e-02 2.374433e-02 1.594987e-02 2.742070e-02 1.326228e-02 1.000000e-02 1.000000e-02 1.000000e-02 1.000000e-02 1.000000e-02 1.000000e-02 1.000000e-02 1.538750e-02 1.026353e-02 1.633790e-02 1.800698e-02 1.000000e-02 1.000000e-02 1.000000e-02 1.000000e-02 1.000000e-02 1.000000e-02 1.600434e-02 1.260682e-02 1.074639e-01 2.452743e-02 2.900068e-02 7.754304e-02 3.051038e-02 2.972036e-02 5.420116e-02 8.559189e-02 1.254762e-02 1.000000e-02 1.000000e-02 1.747127e-02 1.000000e-02 1.000000e-02 1.000000e-02 1.000000e-02 1.000000e-02 1.000000e-02 1.000000e-02 1.000000e-02 1.000000e-02 1.000000e-02 1.000000e-02 1.000000e-02 1.000000e-02 1.000000e-02 1.000000e-02 1.000000e-02 8.439244e-02 1.489567e-02 3.479861e-02 9.648687e-02 2.039424e-02 2.744395e-02 4.378956e-02 3.993712e-02 1.000000e-02 1.000000e-02 1.000000e-02 1.724586e-02 1.000000e-02 1.000000e-02 1.000000e-02 1.000000e-02 1.779347e-02 2.232866e-02 1.207405e-02 1.000000e-02 1.000000e-02 1.000000e-02 1.000000e-02 1.000000e-02 1.000000e-02 1.000000e-02 1.000000e-02 1.000000e-02 2.991199e-02 1.292726e-01 1.398225e-01 6.537750e-02 1.000000e-02 1.000000e-02 1.373194e-02 2.347660e-02 1.000000e-02 1.000000e-02 1.000000e-02 1.000000e-02 1.000000e-02 1.000000e-02 1.000000e-02 1.000000e-02 1.000000e-02 1.000000e-02 1.000000e-02 1.000000e-02 1.000000e-02 1.000000e-02 1.000000e-02 1.000000e-02 1.000000e-02 1.000000e-02 1.000000e-02 1.000000e-02 2.237298e-02 1.000000e-02 4.098484e-02 3.998040e-02
<GCONST> -4.683075e+02
<STATE> 7
<MEAN> 448
 1.529433e-01 -5.303914e-02 -1.917338e-02 1.003207e-01 4.903202e-01 8.064876e-02 -5.965873e-02 2.439338e-01 7.221567e-01 3.189644e-01 -2.557053e-01 7.483222e-01 6.879763e-01 3.615036e-01 5.931040e-02 5.358670e-01 5.409082e-01 3.731785e-01 1.771808e-01 4.738197e-01 3.299541e-01 1.259691e-01 1.392648e-01 2.987657e-01 4.105274e-02 1.841004e-03 -8.636570e-02 7.287271e-02 -6.215139e-02 5.763755e-02 -9.066096e-04 1.559405e-02 5.079210e-02 4.553953e-03 -8.212482e-02 3.925338e-02 2.260928e-01 -1.346913e-01 -7.509720e-02 -3.227994e-02 4.368613e-01 1.834425e-01 2.775894e-01 2.281771e-01 1.882096e-01 2.235903e-02 1.568815e-01 -2.392897e-02 -5.646911e-02 6.586156e-02 2.666832e-02 -9.714306e-03 2.021463e-02 1.720011e-03 5.144340e-02 -1.512070e-02 1.056548e-03 -4.610562e-02 2.598765e-02 1.699578e-02 -4.070673e-01 1.056144e-01 8.240439e-02 -1.006818e-01 -2.088359e-01 -1.837777e-01 9.174239e-02 -3.214087e-01 -1.509314e-02 1.838706e-01 3.960646e-01 -1.477028e-01 -1.748868e-02 -1.781083e-03 1.185083e-01 -9.810896e-02 -1.681742e-01 4.368350e-02 6.502910e-02 -5.611920e-02 1.376417e-02 -1.465460e-02 -9.263293e-02 3.961970e-02 7.325832e-02 1.676145e-02 -1.448825e-02 -1.727994e-02 4.568763e-01 -4.877833e-03 -1.059451e-01 2.463860e-01 7.487223e-01 8.842593e-02 -4.061067e-01 6.448073e-01 1.104216e+00 4.060988e-01 2.102175e-01 7.748510e-01 4.902028e-01 3.839330e-01 2.981983e-01 4.754237e-01 2.635694e-01 2.897959e-02 1.608308e-01 2.523490e-01 1.905569e-02 -1.929329e-02 7.370129e-02 -3.826068e-02 6.889803e-01 3.411033e-01 1.219309e-02 7.911649e-01 1.182674e+00 2.064780e-01 -9.260873e-02 6.958074e-01 9.852324e-01 5.838585e-01 2.343505e-01 9.945764e-01 5.832966e-01 2.653894e-01 7.599066e-02 3.645599e-01 5.794739e-01 2.588117e-01 -1.305072e-02 5.534146e-01 7.568522e-01 1.622639e-01 3.550709e-02 7.189248e-01 3.535431e-01 4.242214e-01 2.927558e-01 3.517515e-01 3.738312e-02 1.004777e-02 7.851143e-02 -8.786130e-02 4.539419e-01 3.516764e-02 -9.430365e-02 2.941212e-01 2.381141e-01 2.547583e-01 1.026729e-01 2.721532e-01 8.244044e-02 -6.275250e-02 3.397217e-02 1.282179e-01 6.381182e-02 -2.524640e-02 -9.188652e-02 -2.553882e-02 1.439193e-01 5.887332e-02 9.323034e-02 1.520156e-01 8.370816e-02 1.909056e-01 2.006023e-01 2.483241e-02 -2.634141e-01 -1.638798e-01 -3.182741e-02 -3.864315e-01 4.959438e-03 1.227828e-02 7.928554e-02 -1.699848e-01 5.889532e-02 1.407423e-01 1.819718e-01 -7.031955e-03 -1.849465e-01 -6.785253e-02 1.787382e-02 -7.507824e-02 -3.277223e-02 3.640904e-02 3.220170e-02 -1.148621e-02 -8.505277e-02 4.759802e-02 -8.810858e-02 -1.525210e-02 -4.243281e-02 -2.124493e-03 1.150478e-02 -8.236569e-02 4.059673e-01 2.691919e-01 2.286898e-01 4.046679e-01 9.343383e-01 1.142892e-01 -1.841036e-01 5.866016e-01 7.179321e-01 4.039464e-01 2.064651e-01 4.194821e-01 4.100566e-01 1.900999e-01 -4.459202e-02 3.218213e-01 3.661072e-01 1.548796e-01 -4.370549e-02 3.447353e-01 4.517441e-01 3.136456e-01 1.672525e-02 5.336769e-01 2.706189e-01 3.182315e-01 2.343116e-01 2.310975e-01 8.266473e-01 2.129689e-01 -1.412476e-02 9.903328e-01 2.782624e-01 3.573394e-02 -1.673268e-02 1.713305e-01 3.904338e-01 8.316585e-02 2.401457e-02 2.978931e-01 4.493273e-01 2.041619e-01 -5.315863e-03 2.672484e-01 2.593015e-01 1.907581e-01 9.193403e-02 2.480183e-01 2.532192e-01 2.046628e-01 1.098368e-02 2.384904e-01 1.396185e-01 1.671164e-01 3.406059e-03 1.346997e-01 2.787164e-01 2.704096e-01 -1.433396e-01 4.831463e-01 2.610116e-01 4.836203e-02 1.016620e-02 9.697984e-02 3.671224e-01 1.132134e-01 -1.010918e-03 2.868731e-01 4.081310e-01 2.066068e-01 7.393956e-02 2.388312e-01 2.889700e-01 1.752173e-01 1.998137e-02 2.468188e-01 3.170884e-01 3.120584e-01 -2.113788e-02 3.627077e-01 1.091020e-01 1.733007e-01 1.787785e-02 1.329133e-01 6.901793e-02 1.581325e-01 8.464290e-03 2.655256e-02 1.623873e-01 8.984366e-02 -5.626111e-02 1.561585e-01 3.074671e-01 6.056735e-02 -6.604931e-02 2.756285e-01 2.128502e-01 1.067813e-01 6.375552e-02 1.304806e-01 1.283781e-01 2.313432e-02 9.738685e-02 6.025822e-02 2.504367e-01 3.103883e-01 4.466994e-02 2.716191e-01 4.094698e-02 7.033049e-02 5.572078e-02 3.738044e-02 6.353088e-01 1.261944e-01 -1.394034e-02 8.844604e-01 2.005284e-01 1.183330e-01 -7.365733e-02 2.198642e-01 3.381453e-01 5.136416e-02 -7.552709e-02 2.356825e-01 4.201264e-01 1.378178e-01 -1.763026e-02 2.682130e-01 4.942207e-01 2.580531e-01 4.527228e-02 4.415163e-01 2.451882e-01 2.005100e-01 6.409918e-03 2.538067e-01 8.319312e-02 6.407984e-02 -2.433877e-02 6.423320e-02 2.420911e-01 8.349963e-02 6.242332e-02 2.384743e-01 5.280855e-03 4.451542e-03 7.395900e-03 2.689649e-02 6.012517e-03 1.844113e-02 2.092293e-03 3.932115e-02 2.755045e-02 2.027887e-02 1.847786e-02 2.419487e-02 -4.273770e-03 -3.662656e-03 -4.514152e-03 -1.291308e-02 -2.703321e-04 2.909147e-03 -4.287199e-03 5.602846e-03 3.975975e-02 9.690583e-02 -1.179086e-01 1.289046e-01 3.533823e-01 1.808996e-01 -1.566126e-01 6.451136e-01 2.015547e-02 2.603701e-02 7.908509e-03 1.125463e-02 1.768259e-02 1.796738e-02 -2.274186e-02 4.214905e-02 9.761345e-02 -1.416132e-02 -9.933950e-02 5.292825e-02 3.139316e-02 2.676983e-02 8.618318e-03 4.381873e-02 3.173268e-03 -1.076148e-03 -1.126999e-03 1.774026e-03 5.147297e-02 1.016738e-01 -8.034647e-02 1.421889e-01 4.773655e-01 -6.546837e-04 9.995627e-02 2.890122e-01 -4.015266e-03 -4.749521e-03 -5.113192e-03 -4.416221e-03 2.394645e-03 3.295466e-03 -3.738127e-02 -6.742944e-03 7.712205e-02 8.227829e-02 5.515319e-02 -2.313938e-02 -2.713278e-04 4.755905e-03 1.426633e-02 1.834656e-02 -1.955579e-03 1.839987e-03 -1.387849e-03 -1.957937e-03 5.567846e-02 1.141559e-01 5.410268e-02 4.532563e-02 -2.578843e-01 1.052678e-03 2.930974e-02 -2.729895e-01 -7.318564e-03 -7.431353e-03 -2.064053e-03 -4.321721e-03 -9.752550e-03 -6.807858e-03 1.632394e-02 -1.072983e-02 -5.776503e-02 -1.936474e-02 3.216005e-02 -7.370615e-04 -1.040389e-02 -1.370878e-02 -1.446023e-02 -2.672064e-02 -9.297420e-04 5.843454e-04 -8.490002e-05 3.583777e-04 -4.151554e-03 -5.825413e-02 1.165463e-02 -7.067807e-02
<VARIANCE> 448
 2.869836e-02 1.772033e-02 3.088565e-02 6.705079e-02 2.149087e-01 7.188996e-02 4.840640e-02 1.357206e-01 9.033806e-02 7.978003e-02 1.170790e-01 1.109907e-01 1.544757e-01 9.561998e-02 1.541444e-01 1.151694e-01 8.535013e-02 1.186410e-01 2.984180e-01 1.920479e-01 1.513308e-01 3.243478e-02 5.627380e-02 1.340841e-01 1.000000e-02 1.000000e-02 1.316783e-02 1.240451e-02 1.704541e-02 1.745318e-02 1.000000e-02 1.733374e-02 5.999626e-02 3.865948e-02 9.058438e-02 5.073066e-02 9.905714e-02 1.468606e-01 8.725257e-02 1.252510e-01 1.024728e-01 1.262319e-01 1.057980e-01 1.052266e-01 1.380640e-01 1.550339e-01 1.066055e-01 1.079098e-01 3.402368e-02 2.488271e-02 4.036363e-02 3.063166e-02 1.608559e-02 1.000000e-02 2.774521e-02 1.512296e-02 3.591617e-02 2.126104e-02 4.948864e-02 2.868856e-02 1.000572e-01 1.724712e-01 1.979317e-01 1.036561e-01 4.085345e-01 2.450539e-01 1.796039e-01 2.294712e-01 2.342042e-01 2.721414e-01 3.118409e-01 3.333873e-01 1.190783e-01 1.539414e-01 1.421152e-01 1.991248e-01 1.245788e-01 7.078854e-02 1.030456e-01 3.945092e-02 3.052207e-02 1.174453e-02 3.602965e-02 1.977806e-02 3.976214e-02 2.551740e-02 7.503428e-02 7.402965e-02 3.697012e-01 1.161632e-01 1.549118e-01 4.838723e-01 1.606707e-01 2.358896e-01 2.370540e-01 1.801636e-01 4.001495e-01 2.676102e-01 2.556910e-01 4.210158e-01 8.199006e-02 1.396837e-01 2.552418e-01 1.244646e-01 1.071938e-01 7.255018e-02 8.419833e-02 2.054030e-01 2.241132e-02 1.293051e-02 4.954411e-02 2.740578e-02 2.154891e-01 1.488289e-01 2.058970e-01 4.332877e-01 2.758977e-01 4.596946e-01 2.730718e-01 2.189296e-01 1.973904e-01 2.200073e-01 2.823390e-01 2.029945e-01 1.088379e-01 1.368940e-01 1.213172e-01 1.237415e-01 1.456947e-01 1.169623e-01 1.844746e-01 1.196554e-01 1.293455e-01 1.399776e-01 2.272476e-01 2.590709e-01 1.492318e-01 1.983397e-01 1.749562e-01 1.761122e-01 1.729489e-01 3.932954e-02 3.960530e-01 1.676317e-01 2.087492e-01 1.807186e-01 1.817269e-01 1.558787e-01 1.755038e-01 1.795826e-01 2.818317e-01 1.282604e-01 1.259258e-01 1.102157e-01 2.111787e-01 8.814442e-02 1.448383e-01 1.506709e-01 1.652557e-01 1.395845e-01 1.267870e-01 1.701091e-01 2.841340e-01 1.462236e-01 9.855343e-02 1.045954e-01 9.986804e-02 2.968220e-02 1.493774e-01 5.348183e-02 1.284237e-01 2.107541e-01 1.657514e-01 1.883944e-01 1.834129e-01 2.156970e-01 2.140038e-01 1.418476e-01 2.966155e-01 2.306742e-01 1.497443e-01 1.364195e-01 2.646120e-01 2.197294e-01 1.499269e-01 1.240659e-01 1.465186e-01 1.744624e-01 1.258650e-01 1.348491e-01 1.872345e-01 1.165869e-01 1.189384e-01 1.957425e-01 1.510333e-01 1.635507e-01 1.010865e-01 1.619949e-01 2.078945e-01 2.456565e-01 2.278255e-01 4.626408e-01 3.036468e-01 1.231425e-01 1.578925e-01 1.374319e-01 1.732857e-01 2.085373e-01 1.585299e-01 9.435274e-02 1.016129e-01 1.378307e-01 1.966305e-01 1.290346e-01 1.484346e-01 1.774250e-01 1.357670e-01 1.203924e-01 3.231536e-01 1.448942e-01 9.743191e-02 1.548946e-01 1.796442e-01 2.267178e-01 3.093336e-01 1.751592e-01 2.046817e-01 3.573107e-01 1.259617e-01 4.673443e-02 3.754598e-02 1.286882e-01 1.009150e-01 6.480520e-02 9.924499e-02 8.360827e-02 8.411165e-02 9.291989e-02 5.167580e-02 7.911509e-02 6.382996e-02 6.544755e-02 7.585545e-02 9.440871e-02 6.438134e-02 1.048712e-01 5.826237e-02 6.378824e-02 7.146947e-02 1.109423e-01 4.627550e-02 8.225655e-02 1.414705e-01 1.224239e-01 4.073646e-01 2.336081e-01 8.478170e-02 2.436181e-02 4.838049e-02 6.666246e-02 1.215852e-01 7.581259e-02 8.409685e-02 9.923695e-02 1.024081e-01 8.359238e-02 6.845285e-02 7.084040e-02 5.133189e-02 4.018639e-02 5.418084e-02 7.868484e-02 5.127925e-02 1.091587e-01 8.693217e-02 7.533417e-02 4.054880e-02 9.775887e-02 4.678063e-02 6.434507e-02 1.094938e-01 1.030726e-01 1.492513e-01 1.402528e-01 4.344073e-02 5.528982e-02 1.131100e-01 9.154155e-02 9.754685e-02 8.599867e-02 7.302628e-02 1.281235e-01 1.132777e-01 7.393578e-02 1.252794e-01 9.622429e-02 1.627283e-01 1.185320e-01 1.480954e-01 2.365309e-01 4.990690e-02 6.457026e-02 1.658704e-01 6.649216e-02 2.458236e-02 6.324920e-02 5.696879e-02 1.761758e-02 2.782537e-01 1.931352e-01 2.391934e-01 5.239352e-01 6.323062e-02 7.863858e-02 1.191807e-01 1.158072e-01 8.157278e-02 7.837540e-02 1.034706e-01 1.422976e-01 1.238245e-01 6.731164e-02 6.326608e-02 9.801931e-02 1.547109e-01 8.494227e-02 9.272657e-02 2.501265e-01 6.142210e-02 5.317844e-02 7.585543e-02 5.081519e-02 9.130915e-02 7.513314e-02 4.796566e-02 8.048190e-02 8.749494e-02 1.014129e-01 1.267731e-01 9.350612e-02 1.000000e-02 1.000000e-02 1.888589e-02 1.783797e-02 1.000000e-02 1.000000e-02 1.000000e-02 2.575590e-02 2.013756e-02 1.472337e-02 3.732741e-02 2.591207e-02 1.000000e-02 1.000000e-02 1.000000e-02 1.000000e-02 1.000000e-02 1.000000e-02 1.000000e-02 1.000000e-02 6.233130e-02 5.414294e-02 7.751612e-02 6.639887e-02 7.207070e-02 6.973621e-02 2.341237e-01 2.265308e-01 1.000000e-02 1.354862e-02 1.000000e-02 1.000000e-02 1.000000e-02 1.000000e-02 1.000000e-02 2.421542e-02 4.267882e-02 1.322970e-02 7.921234e-02 5.938739e-02 1.000000e-02 1.000000e-02 1.000000e-02 1.672841e-02 1.000000e-02 1.000000e-02 1.000000e-02 1.000000e-02 8.517133e-02 4.513203e-02 7.337615e-02 9.704690e-02 1.586846e-01 2.041495e-01 1.406352e-01 1.401017e-01 1.000000e-02 1.000000e-02 1.000000e-02 1.000000e-02 1.000000e-02 1.000000e-02 2.401193e-02 1.000000e-02 6.597977e-02 8.738727e-02 3.398232e-02 2.244804e-02 1.000000e-02 1.000000e-02 1.000000e-02 1.130498e-02 1.000000e-02 1.000000e-02 1.000000e-02 1.000000e-02 6.463049e-02 8.298280e-02 9.047106e-02 4.922744e-02 4.419868e-02 4.849062e-02 4.979708e-02 6.077199e-02 1.000000e-02 1.000000e-02 1.000000e-02 1.000000e-02 1.000000e-02 1.000000e-02 1.000000e-02 1.000000e-02 1.523226e-02 1.371582e-02 1.064103e-02 1.000000e-02 1.000000e-02 1.000000e-02 1.000000e-02 1.000000e-02 1.000000e-02 1.000000e-02 1.000000e-02 1.000000e-02 1.645493e-02 1.837558e-02 2.252935e-02 3.374586e-02
<GCONST> -3.678716e+02
<STATE> 8
<MEAN> 448
 3.222229e-01 1.306424e-01 -1.384839e-02 4.896351e-01 4.960739e-01 2.249373e-01 -1.077428e-01 2.605143e-01 6.373577e-01 2.766152e-01 -1.038869e-01 5.337887e-01 3.891560e-01 2.486097e-01 1.751423e-01 3.762665e-01 1.979328e-01 2.228331e-01 1.061406e-01 2.466021e-01 1.201591e-01 6.876967e-02 1.943318e-02 1.127066e-01 2.403011e-03 1.228307e-03 -3.516451e-03 5.588918e-03 5.589738e-02 6.631441e-02 3.743721e-02 1.094185e-01 9.919488e-02 -1.754389e-02 -2.366391e-02 8.462016e-02 3.609541e-01 2.245295e-01 1.679169e-01 1.210025e-01 7.719063e-02 9.009200e-02 7.437262e-02 4.552312e-02 2.018127e-01 1.980216e-01 1.570985e-01 1.932397e-01 4.874245e-02 5.659616e-03 -6.177442e-02 4.217552e-02 -5.757335e-04 2.602007e-03 -2.018701e-03 3.049170e-03 2.094851e-02 -7.352182e-02 1.228173e-01 3.430291e-02 -9.631219e-02 -1.214913e-01 -4.398774e-02 9.422502e-02 4.723461e-02 -1.766265e-01 6.583007e-02 4.259414e-02 9.910161e-03 1.137727e-01 5.059533e-02 -4.646323e-02 1.689031e-01 1.348350e-01 1.289500e-01 6.855045e-02 1.954804e-02 -8.545788e-02 -8.462132e-02 3.535685e-02 1.290045e-03 2.314717e-03 -1.832308e-03 3.819212e-03 3.207441e-01 2.279276e-01 1.427968e-01 5.420749e-01 4.261815e-01 2.010828e-01 -1.251926e-01 2.588177e-01 8.997244e-01 6.148400e-01 1.609383e-01 8.187445e-01 3.518163e-01 2.453216e-01 2.366706e-01 3.371624e-01 3.323221e-01 3.380986e-01 2.805571e-01 3.267250e-01 9.242898e-02 -1.575954e-02 -5.701001e-02 1.132502e-01 -3.690617e-04 2.607557e-03 -1.710665e-03 3.493562e-03 4.914064e-01 1.129225e-01 -8.297984e-02 6.772089e-01 8.143058e-01 3.058514e-01 1.752140e-02 5.155867e-01 9.998266e-01 3.781218e-01 -1.894881e-01 8.233423e-01 7.180859e-01 3.066061e-01 5.763115e-02 4.926600e-01 5.673299e-01 3.599166e-01 1.142879e-01 4.176581e-01 4.613057e-01 3.368825e-01 1.835425e-01 3.511477e-01 4.380157e-03 8.407990e-03 3.245227e-03 3.127561e-03 2.004250e-01 8.769620e-02 -6.867342e-02 2.042718e-01 5.137106e-01 1.246071e-01 8.939683e-02 2.895602e-01 2.698485e-01 2.074712e-01 1.694061e-01 1.194338e-01 5.053452e-01 2.191565e-01 1.047791e-02 4.683015e-01 1.866312e-01 2.097511e-01 1.099894e-01 1.940985e-01 8.356783e-02 -8.412901e-03 2.310861e-02 6.197171e-02 2.612550e-03 2.912295e-03 2.006152e-03 -2.553538e-03 4.679024e-02 1.169923e-02 -2.653908e-02 -3.409139e-02 4.155686e-02 -2.415153e-02 1.298831e-01 -7.655600e-02 -3.061262e-02 -8.912388e-02 -2.186077e-01 6.212876e-02 -1.109986e-01 6.611445e-02 1.831836e-01 6.015250e-02 -1.455431e-01 -7.076582e-02 -1.729531e-02 -2.548927e-01 -1.034626e-01 -7.458377e-02 -6.451362e-02 -7.373349e-03 2.536905e-03 1.269542e-03 2.757779e-03 9.007938e-04 3.235592e-01 1.590600e-01 -5.487183e-02 5.821738e-01 6.810499e-01 3.477044e-01 -3.339531e-03 6.705022e-01 8.016803e-01 3.243550e-01 -1.107742e-02 5.675567e-01 7.649501e-01 2.638272e-01 3.980518e-02 6.362576e-01 4.252658e-01 3.647658e-01 1.111946e-01 4.497608e-01 3.110517e-01 2.352293e-01 7.720519e-03 2.459846e-01 1.672831e-03 8.116056e-04 1.192263e-03 3.027014e-03 3.905265e-01 2.184629e-01 9.745231e-02 5.639558e-01 4.194243e-01 1.339618e-01 -2.284170e-02 2.919913e-01 4.554537e-01 3.023440e-01 1.120208e-01 3.676368e-01 3.112211e-01 1.383672e-01 8.118930e-03 1.304322e-01 2.485540e-01 1.858951e-01 8.005014e-04 2.765907e-01 2.779726e-01 1.327925e-01 -6.807486e-02 2.573432e-01 2.801988e-02 3.344158e-02 6.957310e-03 1.899078e-02 1.565477e-01 9.132114e-02 -1.227083e-01 1.700484e-01 4.232686e-01 2.038031e-01 8.039796e-02 2.393846e-01 3.743077e-01 1.618967e-01 -4.257531e-03 2.829722e-01 2.817619e-01 8.553615e-02 -6.036445e-03 1.581925e-01 3.449845e-01 1.924165e-01 -4.761008e-02 3.229561e-01 3.120796e-01 2.755783e-01 9.425529e-03 4.135542e-01 9.001443e-03 4.206612e-03 -5.453105e-04 1.800200e-02 -6.284941e-03 -2.541258e-02 -1.448344e-01 7.620978e-02 2.578168e-01 1.756688e-01 1.737411e-02 1.404968e-01 2.367871e-01 -1.194061e-02 -6.378503e-02 1.231783e-01 1.770822e-01 -9.223252e-03 -7.823410e-02 6.905741e-02 3.139299e-01 5.633875e-02 -4.093423e-02 2.043678e-01 2.070801e-01 2.604088e-01 1.227128e-01 3.257083e-01 -2.118136e-02 -1.961576e-02 -2.371150e-03 -2.761212e-02 2.690880e-01 2.156879e-01 9.982512e-02 3.627456e-01 4.544163e-01 1.164600e-01 -1.323966e-02 3.554455e-01 3.762750e-01 1.993496e-01 1.190278e-01 3.219775e-01 2.702323e-01 1.471397e-01 6.854979e-02 1.797695e-01 3.001743e-01 5.563644e-02 -3.500580e-02 1.740246e-01 2.417075e-01 2.678241e-01 1.081545e-01 2.894967e-01 -2.513537e-02 -3.669655e-02 -1.181961e-02 -1.369979e-02 2.362722e-01 6.434758e-02 4.368018e-02 2.357445e-01 1.214253e-01 5.591058e-02 3.405487e-02 1.089301e-01 3.985217e-02 5.156321e-02 3.697723e-02 2.908803e-02 2.371330e-02 2.077064e-03 -1.949173e-02 3.985724e-02 8.608064e-04 5.338152e-04 -4.479924e-04 -3.208913e-04 2.418809e-02 -1.346174e-02 3.182605e-03 -2.308622e-02 4.114701e-02 4.582361e-02 -2.370924e-02 4.604586e-02 3.604000e-01 1.065623e-01 1.081515e-01 4.128632e-01 8.810368e-02 4.497362e-02 -4.690990e-03 7.257210e-02 6.726643e-02 7.103501e-02 4.551714e-02 4.197914e-02 2.283675e-02 6.962332e-03 -3.543347e-02 4.062721e-02 8.076380e-04 7.547226e-04 3.277082e-04 1.027411e-03 3.799764e-02 -3.010639e-04 -5.666473e-02 3.491246e-02 4.661451e-02 7.403004e-02 -4.784111e-02 7.367924e-02 1.669882e-01 6.420753e-02 8.038578e-02 1.086372e-01 9.639189e-02 9.742960e-02 5.041939e-02 4.046689e-02 5.008322e-02 5.251692e-02 2.233184e-02 5.874237e-03 -8.423690e-03 2.596628e-03 -2.236231e-03 -1.618803e-02 2.683821e-04 4.778675e-04 8.735640e-04 1.538383e-03 1.777143e-02 -1.435216e-02 -7.216781e-03 2.653051e-02 5.007077e-02 4.279100e-02 -3.477867e-02 7.630357e-02 -1.686311e-01 -2.289993e-02 -5.780365e-02 -1.643092e-01 -5.340465e-02 -3.636798e-02 6.922035e-03 -1.776905e-02 -3.034667e-02 -3.119729e-02 -1.699757e-02 -1.507401e-02 -6.256833e-03 -4.285647e-03 1.296916e-02 -1.086297e-02 -6.527078e-04 -6.722607e-04 -5.138775e-04 -1.274404e-03 -1.879155e-02 2.323936e-03 2.935666e-02 -2.780346e-02 -2.333810e-02 -2.315884e-02 1.094870e-02 -4.147025e-02
<VARIANCE> 448
 5.069471e-02 1.008057e-01 1.367529e-01 1.732963e-01 6.350517e-02 6.539790e-02 1.217675e-01 1.335918e-01 5.486106e-02 9.090138e-02 2.186364e-01 1.458788e-01 6.238747e-02 7.357622e-02 8.368959e-02 6.508371e-02 4.355546e-02 5.493467e-02 6.464506e-02 5.631508e-02 3.494256e-02 3.048701e-02 5.675628e-02 3.303748e-02 1.000000e-02 1.000000e-02 1.000000e-02 1.000000e-02 3.470428e-02 4.205376e-02 9.401348e-02 5.257446e-02 7.858930e-02 5.333609e-02 1.115200e-01 7.697441e-02 8.857894e-02 9.072943e-02 1.442195e-01 1.523394e-01 6.107599e-02 4.998958e-02 9.494725e-02 3.461208e-02 4.949092e-02 5.838530e-02 6.590777e-02 7.054460e-02 2.916165e-02 3.046248e-02 3.800136e-02 2.872777e-02 1.000000e-02 1.000000e-02 1.000000e-02 1.000000e-02 1.045211e-01 8.900660e-02 1.162689e-01 1.722111e-01 7.680895e-02 1.362914e-01 4.048581e-01 2.401210e-01 1.688489e-01 1.895921e-01 2.137989e-01 3.982988e-01 1.122916e-01 9.721258e-02 1.224893e-01 1.375852e-01 1.101047e-01 1.234796e-01 2.080422e-01 1.110689e-01 5.065847e-02 3.146453e-02 7.021087e-02 5.536896e-02 1.000000e-02 1.000000e-02 1.000000e-02 1.000000e-02 8.967581e-02 1.513196e-01 3.994839e-01 2.337338e-01 1.936304e-01 1.208297e-01 1.763364e-01 2.330748e-01 1.422362e-01 2.230301e-01 3.223564e-01 2.359018e-01 1.431934e-01 1.742814e-01 1.167665e-01 1.128123e-01 8.757043e-02 6.653915e-02 8.309467e-02 1.207430e-01 2.635761e-02 3.567481e-02 6.346220e-02 6.502684e-02 1.000000e-02 1.000000e-02 1.000000e-02 1.000000e-02 8.992028e-02 8.005046e-02 1.847951e-01 1.149350e-01 1.404820e-01 1.221494e-01 1.722007e-01 1.582945e-01 1.854962e-01 1.226013e-01 2.636870e-01 2.221345e-01 1.294893e-01 1.156696e-01 1.749647e-01 1.386053e-01 1.027619e-01 1.509080e-01 1.608559e-01 1.143722e-01 1.363310e-01 9.218299e-02 6.865636e-02 6.511167e-02 1.000000e-02 1.109692e-02 1.000000e-02 1.000000e-02 6.863834e-02 6.419263e-02 1.656042e-01 1.745393e-01 1.507486e-01 1.337062e-01 1.646478e-01 2.175121e-01 2.171848e-01 1.741136e-01 2.383437e-01 3.119344e-01 2.169051e-01 1.517054e-01 2.114496e-01 1.810577e-01 1.193690e-01 1.136865e-01 1.275196e-01 1.137623e-01 5.985028e-02 1.278529e-01 6.523778e-02 9.531810e-02 1.000000e-02 1.000000e-02 1.000000e-02 1.000000e-02 1.192720e-01 1.032167e-01 1.966987e-01 1.894314e-01 1.677929e-01 1.804946e-01 2.580925e-01 2.423888e-01 2.006707e-01 1.925683e-01 3.142067e-01 1.595237e-01 3.563770e-01 1.758630e-01 2.843682e-01 2.712682e-01 1.475964e-01 2.086832e-01 1.502519e-01 1.130890e-01 9.769405e-02 7.270212e-02 2.416401e-01 9.061827e-02 1.000000e-02 1.000000e-02 1.000000e-02 1.000000e-02 1.408854e-01 1.233953e-01 2.502090e-01 1.451729e-01 1.472997e-01 9.625266e-02 2.182881e-01 1.944596e-01 1.726022e-01 1.565447e-01 1.585425e-01 1.709688e-01 2.305129e-01 9.067157e-02 1.688138e-01 1.449624e-01 1.989377e-01 1.488925e-01 1.318429e-01 1.506747e-01 1.020021e-01 1.312321e-01 2.275552e-01 1.013171e-01 1.000000e-02 1.000000e-02 1.000000e-02 1.000000e-02 5.301600e-02 8.255649e-02 1.874523e-01 1.674989e-01 8.548184e-02 9.500058e-02 1.262880e-01 1.127332e-01 8.500387e-02 8.403058e-02 1.377525e-01 1.023057e-01 1.188788e-01 7.689617e-02 4.504924e-02 7.824036e-02 7.079984e-02 7.868066e-02 1.406341e-01 6.888303e-02 7.080390e-02 5.859672e-02 1.085061e-01 4.823426e-02 1.000000e-02 1.000000e-02 1.000000e-02 1.063404e-02 7.078484e-02 9.886777e-02 2.103500e-01 1.364788e-01 9.028581e-02 8.771656e-02 1.239361e-01 8.954945e-02 6.581093e-02 1.151729e-01 1.171090e-01 1.029310e-01 9.870038e-02 9.068503e-02 4.211590e-02 7.500604e-02 8.041759e-02 7.689229e-02 1.233758e-01 9.078249e-02 8.067640e-02 9.872214e-02 1.172244e-01 8.131588e-02 1.000000e-02 1.000000e-02 1.000000e-02 1.000000e-02 1.156386e-01 5.981797e-02 2.179064e-01 1.418281e-01 1.070981e-01 1.010426e-01 1.900328e-01 1.202188e-01 1.395974e-01 7.919464e-02 1.312317e-01 1.365185e-01 1.269894e-01 7.268657e-02 6.691882e-02 1.091723e-01 1.098133e-01 5.908225e-02 8.163396e-02 9.716535e-02 1.178234e-01 1.501406e-01 1.063567e-01 1.374895e-01 1.000000e-02 1.724277e-02 1.000000e-02 1.000000e-02 8.513448e-02 1.092661e-01 3.355851e-01 1.747237e-01 1.612701e-01 9.833736e-02 1.419031e-01 1.482020e-01 1.258928e-01 1.356314e-01 1.759710e-01 1.159707e-01 1.101203e-01 8.774996e-02 7.339840e-02 1.051158e-01 9.933595e-02 5.107674e-02 6.766722e-02 7.335030e-02 7.704557e-02 6.756951e-02 7.160123e-02 1.049813e-01 1.000000e-02 1.857127e-02 1.004668e-02 1.000000e-02 4.740132e-02 5.860756e-02 7.853739e-02 7.149516e-02 4.738481e-02 3.393758e-02 9.041153e-02 7.865164e-02 2.091901e-02 2.783774e-02 1.677516e-02 1.387911e-02 1.736121e-02 1.000000e-02 2.501390e-02 3.307477e-02 1.000000e-02 1.000000e-02 1.000000e-02 1.000000e-02 1.000000e-02 1.000000e-02 1.000000e-02 2.000832e-02 3.504338e-02 2.355339e-02 2.736369e-02 2.256142e-02 1.369955e-01 1.226200e-01 1.947349e-01 8.877692e-02 2.726391e-02 3.218745e-02 5.457787e-02 3.710546e-02 2.092201e-02 2.611316e-02 2.018456e-02 1.738066e-02 1.000000e-02 1.000000e-02 2.606422e-02 3.026828e-02 1.000000e-02 1.000000e-02 1.000000e-02 1.000000e-02 1.163084e-02 1.000000e-02 3.844042e-02 4.208400e-02 4.734460e-02 4.025375e-02 4.108846e-02 6.588395e-02 6.275728e-02 6.793917e-02 1.247931e-01 1.765212e-01 7.554829e-02 7.304890e-02 4.750746e-02 3.640246e-02 4.703514e-02 4.577673e-02 1.509735e-02 1.509504e-02 1.000000e-02 1.000000e-02 1.000000e-02 1.000000e-02 1.000000e-02 1.000000e-02 1.000000e-02 1.000000e-02 1.000000e-02 1.000000e-02 1.185368e-02 2.404783e-02 7.850409e-02 4.766958e-02 3.153744e-02 1.104535e-01 4.141957e-02 4.305758e-02 4.941864e-02 3.013872e-02 2.391933e-02 1.395547e-02 1.000000e-02 1.675248e-02 1.000000e-02 1.000000e-02 1.000000e-02 1.000000e-02 1.000000e-02 1.000000e-02 1.000000e-02 1.000000e-02 1.000000e-02 1.000000e-02 1.000000e-02 1.000000e-02 1.000000e-02 1.000000e-02 1.047463e-02 1.307610e-02 2.216632e-02 1.000000e-02 1.092323e-02 2.177603e-02
<GCONST> -4.553615e+02
<STATE> 9
<MEAN> 448
 1.141734e-01 9.641507e-02 4.289720e-02 2.452719e-01 5.229873e-01 1.494148e-01 -6.353832e-02 3.576878e-01 6.140168e-01 3.365330e-01 1.151411e-01 5.870125e-01 5.970411e-01 2.556535e-01 1.366185e-01 5.483493e-01 3.294725e-01 1.904554e-01 4.110644e-02 4.134940e-01 4.333709e-02 3.244568e-02 1.912635e-02 1.797556e-02 1.203882e-02 7.155213e-04 -4.951695e-03 1.290600e-02 4.376968e-02 4.886324e-02 1.636306e-02 3.980782e-02 -3.497324e-02 -1.503827e-02 -1.437797e-01 -4.470436e-02 3.702800e-01 2.356762e-02 -1.167982e-01 1.217904e-01 1.957870e-01 1.246692e-01 1.069458e-01 2.100675e-01 1.828752e-01 1.202062e-01 7.480417e-02 4.081417e-02 2.650208e-02 3.068987e-02 7.311879e-03 1.135087e-02 1.723036e-02 1.544271e-02 2.003511e-03 2.313668e-02 1.793248e-02 -2.130990e-02 -2.185433e-02 -2.027782e-02 -1.971062e-01 -1.836121e-01 -1.641219e-01 -1.523709e-01 2.212238e-01 -1.140697e-01 -1.934788e-01 -6.055937e-02 7.269901e-02 4.665712e-02 9.586724e-03 1.461152e-01 1.376478e-02 1.753454e-01 5.018486e-02 -2.999536e-02 -2.531233e-02 -1.635651e-02 -4.304656e-03 -3.575700e-03 2.869050e-02 3.356566e-02 9.404221e-03 4.092050e-02 1.153378e-01 1.689835e-01 2.153441e-01 2.843444e-01 4.638896e-01 -1.550039e-02 -1.590732e-01 2.728909e-01 7.406988e-01 3.276881e-01 1.399105e-01 7.029104e-01 6.973077e-01 2.945159e-01 3.041031e-01 7.275351e-01 4.352321e-01 2.498577e-01 5.821921e-02 2.731136e-01 1.942164e-03 -1.116501e-03 5.411189e-03 2.651274e-02 1.960002e-02 2.743048e-02 1.077250e-02 2.630762e-02 7.389310e-01 9.379428e-02 -9.778718e-02 8.074091e-01 9.796788e-01 4.816285e-01 2.255649e-01 6.423312e-01 7.524363e-01 2.561297e-01 -3.076266e-01 6.855229e-01 5.856472e-01 3.517449e-01 4.823450e-02 3.829349e-01 7.689169e-01 2.506336e-01 -2.594153e-01 6.131687e-01 5.445430e-01 4.394754e-01 2.757981e-01 5.250229e-01 1.539689e-02 2.514452e-02 1.443397e-03 6.863430e-04 6.509031e-02 5.573530e-02 -2.040642e-01 1.081501e-01 6.737227e-01 2.916140e-01 9.097057e-02 5.263888e-01 2.306377e-01 -3.022750e-02 -1.957592e-01 3.049785e-01 1.722723e-01 7.164615e-02 8.961060e-02 2.202213e-01 3.430659e-01 2.280978e-01 7.304706e-02 3.255205e-01 4.259004e-02 6.741753e-02 6.352771e-02 6.781310e-02 1.549244e-03 3.941528e-03 8.969429e-03 -8.635928e-04 -6.125533e-02 5.069928e-02 -1.949388e-01 -3.247724e-02 1.184766e-01 1.146430e-01 1.338352e-01 2.180270e-02 -1.157445e-02 4.869769e-02 -4.522447e-02 -1.101716e-01 -6.961694e-02 3.508095e-02 1.112120e-01 -1.558250e-01 4.441754e-02 1.590001e-01 6.487009e-02 3.876654e-02 -1.519391e-01 -5.358352e-02 -1.267460e-01 -2.047206e-01 1.913637e-03 -5.417994e-03 -3.380155e-03 1.094324e-04 5.914382e-01 1.823816e-02 -2.003055e-02 6.461893e-01 7.242515e-01 3.274280e-01 8.707941e-02 5.653644e-01 4.315360e-01 2.984350e-01 2.805223e-02 3.568325e-01 4.271643e-01 5.436812e-02 9.521842e-02 3.180647e-01 5.671809e-01 2.514494e-01 -4.323417e-02 4.539197e-01 3.814747e-01 2.831588e-01 1.072877e-01 2.381776e-01 -4.201952e-03 -4.672804e-03 4.075674e-03 1.102061e-02 3.598126e-01 1.652153e-01 1.372773e-01 4.493768e-01 4.130460e-01 2.007460e-01 -1.096086e-01 3.837650e-01 6.484630e-01 2.367205e-01 -1.679292e-02 5.107260e-01 5.934631e-01 2.893042e-01 4.816596e-02 3.921748e-01 5.757174e-01 2.489885e-01 -1.620932e-01 5.532317e-01 4.219484e-01 3.324507e-01 -1.192214e-02 3.410994e-01 3.133566e-01 3.611402e-01 4.354502e-02 1.368331e-01 2.523871e-01 1.387646e-02 -7.018255e-02 3.072730e-01 4.214915e-01 1.977580e-01 -5.447376e-02 4.178003e-01 3.757163e-01 1.600583e-01 -6.673131e-02 2.358005e-01 4.846148e-01 2.068781e-01 1.908933e-02 3.254560e-01 4.544487e-01 1.714919e-01 9.111559e-02 3.110903e-01 3.616880e-01 3.145143e-01 1.549242e-01 3.359710e-01 -3.134786e-03 1.141413e-01 -4.964312e-02 2.029155e-01 1.847291e-01 -6.715080e-02 -1.315595e-01 1.738863e-01 2.137265e-01 8.318692e-02 -7.241596e-02 3.741287e-01 1.456132e-01 -2.603665e-02 -2.256953e-01 1.453740e-01 2.689139e-01 2.212048e-01 9.363019e-02 2.317831e-01 9.243663e-02 -2.661791e-02 -4.129930e-02 1.245638e-01 7.666219e-02 9.801412e-02 2.350478e-01 8.203679e-02 -2.073070e-01 -2.316523e-01 4.537805e-03 -2.448120e-01 2.826206e-01 5.763264e-02 9.858716e-02 2.893828e-01 5.858810e-01 -5.651440e-02 -2.020102e-01 3.977025e-01 7.742611e-01 2.149165e-01 1.386331e-03 4.804886e-01 6.398066e-01 2.285908e-01 -5.300043e-02 5.494727e-01 7.270027e-01 3.388110e-01 1.350088e-01 5.832062e-01 3.284051e-01 4.650189e-01 2.417908e-01 3.825500e-01 1.744309e-01 4.644279e-01 1.299926e-01 8.552311e-02 1.200061e-01 1.295189e-01 1.648366e-01 1.856139e-01 3.234052e-02 -3.788929e-03 -3.650605e-02 2.063226e-02 1.437163e-01 3.007337e-02 -3.258279e-02 1.126708e-01 1.685994e-01 1.187998e-01 6.136195e-02 5.413693e-02 1.082492e-02 1.948651e-02 4.216285e-03 8.297227e-03 -1.511738e-03 2.649679e-02 -4.991668e-02 1.975364e-02 3.999980e-01 2.860069e-02 -1.118295e-01 1.689036e-01 1.600387e-01 1.409150e-01 1.656688e-01 2.125267e-01 3.657594e-02 -1.091729e-02 -2.425080e-03 -1.059781e-02 1.955353e-01 -1.703994e-02 -7.376960e-02 1.149336e-01 3.164685e-01 6.069091e-02 -2.645057e-02 3.218108e-01 6.874337e-02 9.020812e-02 5.432889e-02 3.373053e-02 3.586659e-02 1.086607e-01 -4.058846e-02 5.792311e-02 4.082865e-01 2.846347e-01 -1.374143e-01 4.271941e-01 1.877964e-01 1.344290e-01 9.442039e-02 1.114314e-01 9.882716e-04 1.461682e-02 -1.768176e-02 -2.188323e-02 1.092974e-01 6.319064e-02 4.837003e-02 8.585244e-02 7.290962e-03 -4.722170e-02 -6.186881e-02 1.218975e-03 -1.758924e-02 -2.613001e-02 -1.588250e-02 -1.056503e-02 2.154839e-02 6.883220e-02 -4.136162e-02 1.103587e-02 1.003549e-02 3.082440e-01 1.341055e-01 2.247852e-01 -5.847628e-02 -4.065556e-02 -6.988905e-02 -7.811102e-02 -2.043199e-02 2.929269e-03 8.844089e-03 1.399439e-02 -1.262847e-01 -2.197143e-02 3.380203e-03 -7.785442e-02 -1.438433e-01 -3.202471e-02 2.912102e-02 -1.208678e-01 -2.194088e-02 -2.452813e-02 -1.015045e-02 -5.885354e-03 -2.592330e-02 -7.585100e-02 1.268150e-02 -3.764835e-02 -3.768811e-02 -9.990253e-02 8.559535e-02 -2.770842e-01
<VARIANCE> 448
 2.120565e-02 4.687467e-02 4.693636e-02 1.203650e-01 2.337017e-01 9.737806e-02 6.991646e-02 1.023323e-01 7.298320e-02 9.698680e-02 1.792814e-01 1.221187e-01 8.478375e-02 8.125742e-02 8.904023e-02 1.405295e-01 1.091094e-01 3.326301e-02 1.246695e-01 1.658286e-01 1.650766e-02 1.303886e-02 1.000000e-02 1.222642e-02 1.000000e-02 1.000000e-02 1.000000e-02 1.000000e-02 2.223656e-02 1.966710e-02 4.182556e-02 3.492133e-02 6.226151e-02 6.048870e-02 9.489735e-02 7.470504e-02 1.518052e-01 7.278053e-02 1.326273e-01 1.432385e-01 8.115784e-02 9.261559e-02 1.047010e-01 9.356844e-02 1.005817e-01 6.300745e-02 6.739962e-02 6.725618e-02 1.000000e-02 1.000000e-02 1.137342e-02 1.000000e-02 1.000000e-02 1.000000e-02 1.000000e-02 1.138837e-02 4.113293e-02 6.512902e-02 4.954923e-02 1.075969e-01 1.190205e-01 1.525710e-01 2.883073e-01 1.914441e-01 2.471250e-01 1.637486e-01 1.931745e-01 2.780705e-01 1.449306e-01 1.685358e-01 2.450528e-01 1.565934e-01 2.606646e-01 1.352472e-01 1.172062e-01 1.557288e-01 1.000000e-02 1.000000e-02 2.042998e-02 1.000000e-02 1.215174e-02 2.426213e-02 2.547352e-02 2.676608e-02 7.047524e-02 1.275224e-01 1.926389e-01 1.374570e-01 2.607102e-01 8.709428e-02 1.800740e-01 2.393446e-01 1.857059e-01 2.170687e-01 2.097216e-01 3.188023e-01 2.463075e-01 1.701211e-01 4.103354e-01 2.205086e-01 1.874285e-01 1.061302e-01 1.017517e-01 2.967265e-01 1.000000e-02 1.000000e-02 1.000000e-02 2.173501e-02 1.000000e-02 1.693180e-02 1.626372e-02 1.604941e-02 2.516720e-01 9.963600e-02 1.559954e-01 3.787399e-01 1.950068e-01 2.199020e-01 1.756014e-01 2.253027e-01 1.281081e-01 1.655349e-01 2.900085e-01 1.296083e-01 1.740914e-01 8.420422e-02 8.838756e-02 1.148034e-01 2.447205e-01 1.495859e-01 1.602222e-01 1.884963e-01 1.323787e-01 1.062039e-01 1.624360e-01 2.411963e-01 1.000000e-02 2.984424e-02 1.000000e-02 1.000000e-02 8.230851e-02 5.583407e-02 1.820925e-01 1.836091e-01 1.429466e-01 2.168393e-01 1.342000e-01 2.323264e-01 1.842895e-01 1.184152e-01 2.326029e-01 1.464390e-01 2.250308e-01 1.129292e-01 1.433269e-01 1.137257e-01 1.843039e-01 1.459410e-01 1.645892e-01 3.299964e-01 9.250628e-02 1.256616e-01 1.401734e-01 1.682225e-01 1.000000e-02 1.000000e-02 1.000000e-02 1.000000e-02 1.857166e-01 7.650270e-02 1.058342e-01 2.739560e-01 2.467470e-01 1.092385e-01 1.004876e-01 3.718029e-01 1.376072e-01 1.143714e-01 2.000857e-01 1.990467e-01 3.050099e-01 2.443328e-01 2.306354e-01 2.543932e-01 2.156293e-01 2.878493e-01 3.961151e-01 2.297864e-01 8.170921e-02 1.409762e-01 1.253537e-01 9.019752e-02 1.000000e-02 1.000000e-02 1.000000e-02 1.000000e-02 4.239510e-01 1.876524e-01 1.574912e-01 2.690090e-01 1.074501e-01 1.536083e-01 2.079016e-01 1.888949e-01 1.331264e-01 8.717813e-02 2.385886e-01 1.438081e-01 1.846672e-01 1.072866e-01 1.192461e-01 2.020577e-01 2.003198e-01 1.378316e-01 1.908817e-01 2.897815e-01 2.227018e-01 1.448359e-01 1.663658e-01 1.024078e-01 1.000000e-02 1.000000e-02 1.000000e-02 1.000000e-02 8.846255e-02 1.451934e-01 1.743503e-01 1.308215e-01 8.417079e-02 5.878489e-02 9.613503e-02 9.488413e-02 1.624857e-01 8.916187e-02 1.322996e-01 1.659908e-01 1.892071e-01 1.873516e-01 1.722689e-01 9.112117e-02 1.539295e-01 1.278051e-01 2.116830e-01 1.856702e-01 1.198345e-01 1.325518e-01 1.130505e-01 1.350640e-01 1.139881e-01 1.511762e-01 1.182185e-01 1.207728e-01 1.365014e-01 4.648739e-02 1.632160e-01 2.347599e-01 7.130136e-02 4.375061e-02 8.570924e-02 8.488856e-02 1.598339e-01 8.996000e-02 1.784325e-01 1.914780e-01 1.098877e-01 1.109734e-01 7.465453e-02 1.064335e-01 1.721238e-01 1.782144e-01 1.657696e-01 2.290456e-01 7.129584e-02 1.358974e-01 9.835604e-02 1.931066e-01 8.207303e-02 1.388540e-01 9.487587e-02 2.107104e-01 1.691233e-01 4.423420e-02 1.524233e-01 2.772930e-01 1.977740e-01 1.359924e-01 1.210052e-01 2.206648e-01 3.818043e-01 1.067246e-01 1.603426e-01 2.628055e-01 2.580175e-01 1.669640e-01 7.770348e-02 2.138712e-01 2.730294e-01 1.482989e-01 1.661767e-01 1.953106e-01 1.066245e-01 1.065477e-01 1.632987e-01 3.247498e-01 1.884143e-01 2.314673e-01 1.587254e-01 1.703007e-01 8.849357e-02 1.346925e-01 1.554593e-01 1.059936e-01 1.457421e-01 8.278116e-02 1.020841e-01 1.181374e-01 1.857473e-01 1.306722e-01 2.040657e-01 1.302336e-01 1.771645e-01 1.207080e-01 1.263552e-01 1.910058e-01 2.196879e-01 1.701202e-01 1.790112e-01 1.334318e-01 1.354195e-01 1.844410e-01 1.420165e-01 8.602598e-02 1.433630e-01 5.039657e-01 1.309878e-01 2.129903e-01 3.607226e-02 3.778941e-02 7.168504e-02 6.298667e-02 1.016382e-02 1.000000e-02 3.701350e-02 3.614583e-02 5.796252e-02 7.057746e-02 6.320564e-02 6.136063e-02 1.148121e-01 1.200001e-01 1.052799e-01 5.540092e-02 1.232071e-02 1.000000e-02 1.000000e-02 1.000000e-02 1.000000e-02 1.000000e-02 1.000000e-02 1.000000e-02 2.613283e-01 1.139005e-01 1.358372e-01 1.358550e-01 5.999975e-02 5.592509e-02 1.019493e-01 7.439111e-02 1.000000e-02 1.000000e-02 1.000000e-02 1.000000e-02 1.188341e-01 5.716310e-02 5.744227e-02 7.390562e-02 2.006592e-01 1.123929e-01 7.208788e-02 2.522504e-01 4.899172e-02 6.719013e-02 2.910777e-02 1.927184e-02 2.246191e-02 3.643420e-02 6.188859e-02 2.113661e-02 2.374954e-01 3.507738e-01 9.456556e-02 2.037488e-01 8.718154e-02 7.110007e-02 9.114920e-02 1.162900e-01 1.000000e-02 1.000000e-02 1.000000e-02 2.034472e-02 1.108757e-01 7.354974e-02 4.231025e-02 8.923174e-02 6.773150e-02 3.285009e-02 4.944981e-02 6.894737e-02 1.000000e-02 1.000000e-02 1.000000e-02 1.000000e-02 1.000000e-02 1.921737e-02 3.533932e-02 1.000000e-02 2.021012e-01 1.852063e-01 2.274733e-01 2.062020e-01 2.297848e-02 2.302247e-02 2.289098e-02 1.878080e-02 1.000000e-02 1.000000e-02 1.000000e-02 1.000000e-02 4.475915e-02 3.487321e-02 1.991650e-02 2.974546e-02 5.884166e-02 2.148379e-02 1.168248e-02 3.815905e-02 1.000000e-02 1.000000e-02 1.000000e-02 1.000000e-02 1.442010e-02 2.258609e-02 2.235451e-02 1.000000e-02 7.706975e-02 9.222028e-02 6.587172e-02 7.670385e-02
<GCONST> -3.278415e+02
<TRANSP> 10
 0.000000e+00 1.000000e+00 0.000000e+00 0.000000e+00 0.000000e+00 0.000000e+00 0.000000e+00 0.000000e+00 0.000000e+00 0.000000e+00
 0.000000e+00 7.826087e-01 2.173913e-01 0.000000e+00 0.000000e+00 0.000000e+00 0.000000e+00 0.000000e+00 0.000000e+00 0.000000e+00
 0.000000e+00 0.000000e+00 8.400000e-01 1.600000e-01 0.000000e+00 0.000000e+00 0.000000e+00 0.000000e+00 0.000000e+00 0.000000e+00
 0.000000e+00 0.000000e+00 0.000000e+00 9.082569e-01 9.174313e-02 0.000000e+00 0.000000e+00 0.000000e+00 0.000000e+00 0.000000e+00
 0.000000e+00 0.000000e+00 0.000000e+00 0.000000e+00 6.774194e-01 3.225806e-01 0.000000e+00 0.000000e+00 0.000000e+00 0.000000e+00
 0.000000e+00 0.000000e+00 0.000000e+00 0.000000e+00 0.000000e+00 8.742138e-01 1.257862e-01 0.000000e+00 0.000000e+00 0.000000e+00
 0.000000e+00 0.000000e+00 0.000000e+00 0.000000e+00 0.000000e+00 0.000000e+00 8.130841e-01 1.869159e-01 0.000000e+00 0.000000e+00
 0.000000e+00 0.000000e+00 0.000000e+00 0.000000e+00 0.000000e+00 0.000000e+00 0.000000e+00 8.918919e-01 1.081081e-01 0.000000e+00
 0.000000e+00 0.000000e+00 0.000000e+00 0.000000e+00 0.000000e+00 0.000000e+00 0.000000e+00 0.000000e+00 8.095238e-01 1.904762e-01
 0.000000e+00 0.000000e+00 0.000000e+00 0.000000e+00 0.000000e+00 0.000000e+00 0.000000e+00 0.000000e+00 0.000000e+00 0.000000e+00
<ENDHMM>
